Version 8.3.2
Id 
Min label:-50
Max label:50
bits:18
lda:0
0 ngram:
0 skip:
options:
Checksum: 396771088
:0
11:-0.00402038
12:0.0140523
23:-0.0321287
34:0.0209493
38:-0.115262
53:-0.00741231
56:-0.0250746
61:-0.0144995
64:0.00445649
83:-0.0102244
181:-0.0356894
202:-0.0331841
245:-0.0341646
274:-0.0128225
281:-0.0402014
293:-0.0198189
308:-0.0191486
316:0.0319658
330:-0.0340475
333:0.0429856
355:-0.0294769
461:0.0343152
490:-0.0320811
495:-0.0292724
496:-0.0331598
573:0.0522802
588:-0.0211684
604:-0.0394504
635:-0.0341119
643:0.0295293
648:-0.0293603
662:0.0354622
666:-0.00576404
725:-0.0746556
731:0.034572
745:0.058472
766:-0.00779573
774:0.092247
777:0.00332245
781:-0.00425954
792:0.0141456
793:0.00296191
815:-0.0199917
817:-0.0632867
897:-0.0050192
911:0.0389306
920:-0.0762412
929:0.00888088
960:-0.0346476
963:-0.015909
966:-0.0518389
968:-0.0327117
982:-0.0341586
983:-0.034815
991:-0.0420386
1016:0.0599752
1048:-0.0325429
1049:-0.0175843
1055:-0.0618782
1066:-0.0242089
1074:0.0354081
1123:-0.0457109
1128:-0.00745819
1145:0.0336634
1146:-0.0326729
1166:-0.035476
1181:-0.00925432
1194:-0.0342353
1227:-0.0535402
1254:-0.142668
1293:-0.0315512
1298:-0.0510227
1307:0.00774533
1332:-0.0300065
1338:-0.109623
1340:0.0370825
1352:0.34043
1353:-0.0457975
1365:-0.0578422
1405:-0.0335122
1418:-0.0322958
1433:0.0339462
1447:-0.0110261
1463:-0.0275215
1472:-0.0521518
1478:0.00433606
1485:-0.0337182
1528:0.0348678
1585:-0.0340166
1592:0.0532033
1593:0.0343271
1633:-0.00985609
1651:0.112655
1662:0.0137963
1670:0.046382
1706:-0.0138673
1714:-0.0345849
1769:-0.0654088
1790:-0.0356196
1792:0.0341637
1819:0.0231552
1821:0.00591772
1865:-0.0172097
1870:0.0182622
1872:0.0624409
1874:-0.0478603
1910:-0.0041458
1956:0.0348918
1988:-0.0331321
1989:0.0397264
1992:-0.0464766
2002:0.0348073
2005:-0.0352226
2107:-0.0083134
2138:0.0901951
2173:-0.022282
2197:-0.00185277
2220:-0.0498917
2225:0.0352335
2226:0.0349158
2254:-0.0279807
2258:-0.000960329
2268:0.00723839
2270:-0.00744258
2306:0.051344
2313:0.0332788
2344:0.101687
2383:0.0303135
2414:0.0220893
2425:0.00119809
2436:-0.0485896
2454:-0.0107798
2472:-0.0619388
2475:0.00293822
2505:-0.0159447
2550:-0.0274927
2561:-0.0762124
2584:0.0346278
2627:0.0314898
2663:-0.00410067
2699:0.0329355
2720:0.0353086
2723:-0.0328197
2726:-0.0338884
2750:0.0345352
2766:0.000955623
2777:0.0427392
2798:0.0678264
2817:0.0145788
2826:-0.00759256
2831:-0.0498171
2841:-0.0500199
2851:0.00446576
2865:-0.0268016
2873:-0.0699002
2920:-0.0626491
2921:-0.00542898
2937:-0.0340115
3007:-0.0605734
3009:0.0265809
3041:0.0124102
3047:-0.0510916
3057:0.0136655
3063:-0.0342029
3068:0.0290577
3084:-0.0400799
3093:0.0160423
3096:-0.0330625
3103:0.0178667
3111:-0.0325353
3125:-0.0114338
3178:-0.0289306
3195:-0.0437573
3198:0.0136013
3213:0.0295008
3247:-0.0338687
3252:-0.0200716
3294:0.0364934
3351:-0.0330412
3368:-0.0203193
3400:-0.0344982
3438:-0.00941022
3522:-0.0336278
3543:-0.0522294
3554:-0.046025
3576:0.0512
3611:-0.0101861
3646:0.0747222
3663:-0.0279158
3673:-0.0343774
3674:0.0502603
3681:-0.0468016
3699:-0.0233236
3706:-0.00327865
3774:0.0208724
3809:-0.0318557
3815:-0.0111302
3832:-0.0324687
3869:-0.00425695
3883:-0.0304694
3929:-0.0296953
3930:-0.0337321
3944:-0.00133115
3951:0.00108456
3957:-0.080244
3967:0.0159585
3971:0.016461
3976:0.0349581
3984:0.0217701
3990:-0.0588272
4020:0.022276
4044:-0.0658705
4077:0.033633
4078:0.0339356
4108:-0.0498078
4127:0.0510478
4141:-0.0100365
4152:-0.0409389
4159:0.0344607
4162:-0.0335046
4163:-0.031924
4188:-0.0995668
4194:0.0393581
4224:-0.0335451
4225:0.00154604
4231:0.0129088
4232:0.0242582
4242:-0.026821
4253:-0.0241788
4271:-0.0130638
4276:-0.0154544
4285:-0.035467
4286:0.0143733
4329:-0.0339817
4337:0.0330121
4345:-0.0542482
4349:-0.048188
4362:-0.0544084
4375:0.0339144
4392:0.0249141
4406:0.0405287
4451:0.0367294
4454:-0.0296616
4481:-0.00535738
4553:-0.0347038
4575:-0.0302767
4588:0.0349792
4599:0.0382921
4600:-0.070268
4608:0.00733961
4621:-0.000935805
4635:0.0329106
4650:-0.0128009
4652:0.0783436
4669:0.0353858
4679:-0.0311494
4698:0.0178601
4715:-0.0375371
4720:-0.0188463
4727:0.00631864
4753:-0.0317145
4785:-0.089125
4824:-0.287666
4825:-0.0602966
4827:0.0354212
4833:0.0514547
4842:-0.0875085
4859:0.0354536
4898:0.0329531
4920:-0.0354379
4963:0.00700428
4995:-0.0469597
5033:-0.0335073
5040:0.0577039
5063:0.00874286
5081:-0.0391592
5142:0.0458825
5172:-0.0326332
5176:-0.0451191
5182:-0.0300495
5197:-0.0339282
5247:0.0321296
5248:-0.0431753
5262:-0.0510595
5287:0.0356961
5288:-0.0365049
5308:-0.0513985
5317:0.0395699
5330:0.0303252
5349:-0.0521502
5373:0.0475209
5385:-0.0851411
5402:-0.0174709
5411:0.0196154
5419:-0.0729398
5484:-0.00788379
5496:0.0531914
5532:0.0350379
5533:0.0352727
5562:-0.0839602
5565:0.00570669
5574:0.0311793
5577:-0.0337925
5582:0.0557185
5611:-0.029911
5617:-0.0168115
5651:-0.0318162
5667:-0.0141904
5703:-0.0327305
5711:-0.0297345
5729:0.0483263
5736:0.0355053
5760:0.0343497
5831:-0.0625188
5836:0.0730456
5844:-0.0363166
5904:0.0508093
5905:-0.049807
5913:-0.060799
5931:-0.0583188
5935:0.0204803
5998:-0.0266098
6062:0.0355599
6083:0.0508643
6088:-0.0488519
6101:-0.0519778
6131:-0.0197803
6147:-0.0965438
6162:-0.0347941
6166:0.0047148
6187:-0.0295432
6214:0.00225274
6226:-0.0465269
6249:-0.0141991
6261:0.034419
6284:-0.00272125
6299:-0.0492577
6301:0.0533119
6329:-0.026025
6340:0.0329189
6378:0.0370769
6402:0.0599647
6404:0.0348425
6445:-0.0452347
6505:-0.0522206
6508:-0.0328462
6526:-0.0308736
6551:0.0355594
6560:-0.0307637
6580:-0.0431228
6588:-0.00662086
6625:-0.020706
6649:0.0020096
6653:0.0103623
6668:-0.0165682
6679:0.0478091
6723:-0.0335041
6739:-0.0167905
6752:-0.0690157
6756:-0.0498133
6772:-0.0619718
6818:0.0513683
6870:-0.0857251
6879:-0.0323665
6916:-0.0244637
6933:-0.00193352
6981:0.00798926
7001:-0.0130105
7002:0.00412076
7009:0.00629171
7013:-0.00948005
7020:0.0359108
7045:-0.0345412
7053:-0.0479673
7058:0.00880232
7059:-0.0465933
7065:-0.093034
7069:-0.0637646
7083:0.0354329
7088:-0.0031249
7123:-0.0199113
7126:-0.0447835
7134:-0.0224162
7146:-0.0229981
7148:-0.00493364
7159:0.0323383
7185:0.0306482
7195:-0.0162414
7202:-0.050037
7203:0.0225603
7221:0.0351259
7224:-0.0337744
7242:0.0348043
7244:0.0145134
7257:-0.0650598
7259:-0.019297
7262:0.0488279
7263:-0.0514941
7299:-0.0361065
7300:0.0287482
7302:-0.0452733
7303:-0.0518777
7307:-0.058686
7312:-0.0450179
7319:-0.03375
7358:0.00712936
7369:0.0879552
7406:0.0465615
7447:0.0278157
7449:-0.0160401
7468:-0.033201
7476:-0.0347054
7478:-0.0328272
7514:-0.0505265
7533:-0.015643
7540:-0.0136234
7541:-0.0493966
7584:0.0541213
7587:-0.126483
7593:0.0377301
7632:0.00193476
7633:-0.0353649
7654:0.00734938
7665:0.0568787
7674:-0.034862
7679:0.0493156
7698:-0.0348973
7811:-0.0140478
7814:0.015116
7825:0.0353539
7837:-0.00125344
7845:0.0144857
7879:-0.0331879
7899:-0.00537414
7901:-0.046827
7903:0.0105747
7928:-0.0970952
7935:-0.0178498
7940:0.229036
7974:-0.044794
7975:0.0352142
7984:-0.0338572
7987:0.0079169
8018:-0.112099
8032:0.0634326
8042:-0.0499268
8064:0.0347954
8089:-0.00775992
8092:0.025271
8106:-0.0317977
8108:-0.423343
8111:-0.00723922
8115:-0.064333
8117:0.00480294
8164:0.00975321
8166:0.0609855
8170:0.0320943
8175:0.0339935
8221:-0.117267
8243:-0.0334767
8270:0.0351586
8323:-0.0335589
8326:-0.0321612
8338:0.0352856
8351:-0.0481126
8363:-0.0551541
8368:0.0355496
8375:0.03553
8391:-0.100463
8412:0.034193
8434:-0.0388689
8449:-0.0345358
8458:0.0289364
8470:-0.0340298
8490:-0.0418133
8498:0.0356345
8549:-0.0458529
8551:0.0341473
8555:0.0566666
8577:-0.0332042
8578:-0.0347606
8581:-0.0335817
8597:-0.0514958
8598:-0.0328869
8619:-0.043245
8642:-0.00597191
8662:-0.0675305
8667:-0.106783
8697:0.022685
8703:0.0776324
8710:-0.0469588
8712:0.0354742
8721:0.0182141
8738:-0.033296
8745:0.0348602
8750:0.0188068
8755:0.0742672
8770:-0.0191061
8773:0.0351756
8774:-0.0309701
8779:-0.015643
8782:0.00476386
8806:-0.0338725
8817:-0.0315433
8823:0.00724112
8824:-0.0451887
8860:-0.015715
8868:-0.0350267
8869:-0.0466237
8876:0.108221
8941:0.0405233
8963:-0.0456004
8965:0.0321253
8980:-0.0326051
8989:0.096644
8992:-0.103507
9025:0.014882
9031:0.0352291
9041:0.0321245
9054:-0.0286244
9086:-0.0505326
9155:0.0340135
9175:-0.00908039
9205:-0.0331562
9216:-0.0381517
9229:0.0970179
9256:-0.0315073
9271:-0.0337377
9292:-0.00513088
9307:-0.0450242
9310:0.0105912
9311:0.0125431
9325:-0.0289702
9337:-0.0332907
9354:-0.0333122
9364:-0.0257046
9369:0.0334263
9374:0.0308928
9380:0.0421627
9391:-0.0336406
9422:0.00575637
9435:0.0168191
9460:0.052169
9463:-0.0337839
9465:0.0542875
9466:0.0212582
9482:-0.0135293
9488:-0.012001
9530:-0.0339888
9554:-0.00877345
9556:-0.0344677
9558:0.0658788
9564:0.0155876
9582:-0.0539356
9584:-0.000660743
9600:-0.0364623
9607:0.00793013
9608:0.00476006
9623:-0.012477
9632:-0.0201236
9643:0.0342763
9667:-0.0343433
9668:-0.0337904
9744:-0.000791385
9755:-0.0178362
9775:-0.0149289
9779:0.0536285
9783:0.00415599
9804:-0.0337012
9827:-0.0328052
9834:-0.0332428
9850:0.0484404
9864:-0.117278
9868:-0.069923
9897:-0.0335072
9917:0.0608577
9927:0.0138211
9929:-0.0337879
9936:-0.0362177
9939:-0.0336679
9973:-0.044915
9974:-0.00446601
9994:-0.0444218
10013:-0.00571611
10014:-0.0240488
10020:-0.0501058
10023:-0.0863233
10047:-0.0881964
10055:-0.034686
10067:0.000410804
10077:0.0118095
10078:-0.000111029
10083:-0.0293328
10088:-0.0124846
10096:-0.0310724
10101:-0.0518499
10115:-0.0351701
10117:-0.0331851
10128:-0.0578274
10147:0.0345299
10149:-0.0456922
10159:-0.0273935
10169:0.0270464
10181:-0.0306414
10186:-0.00516625
10203:0.00149186
10206:0.0356189
10209:-0.0330479
10219:-0.0466366
10228:-0.03127
10245:-0.0339064
10252:0.0302845
10261:-0.0819463
10266:-0.0135779
10267:-0.00547603
10277:-0.03304
10286:-0.0337311
10301:-0.0342112
10309:-0.0330089
10327:0.0515705
10334:-0.030385
10336:-0.0117189
10338:-0.0496536
10366:-0.0335717
10395:-0.0340565
10401:-0.0121694
10432:0.0353907
10469:-0.0304094
10511:-0.0331576
10533:0.0191703
10537:0.0353307
10539:-0.0289615
10542:0.00373198
10565:0.0332707
10581:-0.00025042
10672:-0.0171269
10689:0.0320054
10701:0.0141038
10730:0.0620056
10736:-0.0205878
10741:-0.0296889
10748:-0.0792565
10758:-0.0197543
10759:-0.0130663
10780:-0.00608012
10787:0.0253841
10792:-0.0129102
10797:-0.0137033
10823:-0.0306438
10847:-0.00546841
10848:0.0043958
10864:0.0344265
10879:-3.10216e-05
10895:-0.0642995
10901:-0.0326513
10926:0.000165005
10931:-0.0270694
10941:0.0359185
10962:-0.00643801
10986:-0.0623827
11017:0.0279676
11066:0.0202726
11088:-0.000900189
11098:-0.0322001
11116:-0.0333549
11130:0.0541442
11135:-0.04712
11138:0.031442
11143:-0.0192286
11145:0.0117442
11169:-0.0185139
11214:-0.0356562
11231:0.049226
11247:0.0373246
11273:0.0352566
11275:0.0191803
11338:0.034026
11356:0.0346778
11365:-0.0340821
11371:-0.0341199
11382:0.0160248
11384:-0.0671876
11386:0.0339805
11396:-0.0355925
11437:0.00723948
11443:0.0156233
11461:-0.0411801
11465:-0.0099219
11470:-0.0358164
11508:0.0136823
11511:-0.00637699
11515:0.00983523
11520:0.0890832
11535:0.0333376
11541:-0.000293922
11556:0.0355048
11592:0.0499456
11596:-0.0849629
11629:-0.0521244
11641:-0.0476956
11642:0.034422
11659:0.0351045
11671:-0.0252151
11703:-0.0471797
11736:-0.0298381
11739:0.00113077
11742:-0.140862
11752:-0.0334899
11804:0.00657383
11817:-0.03112
11852:0.0528725
11880:-0.0118621
11882:0.00854081
11888:0.00187604
11926:0.0348292
11947:0.032535
11948:-0.00651087
11965:0.0517257
11970:0.0641538
11986:-0.0745519
11993:0.0357334
12003:0.0440843
12004:-0.0283213
12026:0.00108933
12030:-0.0330717
12043:0.0324503
12080:0.0357985
12084:0.0140259
12086:-0.0482234
12099:0.00637425
12100:-0.0349015
12101:-0.0509969
12105:-0.016852
12135:-0.0025084
12138:-0.0810856
12146:-0.124276
12155:-0.0462291
12177:-0.0335536
12182:-0.0325257
12185:-0.0311769
12187:0.0508994
12210:-0.00877324
12218:0.00807378
12233:0.0169766
12243:0.0352404
12275:-0.0497646
12279:-0.0619816
12302:-0.0333799
12313:-0.0976892
12318:-0.0342289
12322:0.0358557
12335:-0.0750552
12343:0.021853
12365:-0.0373656
12386:0.034707
12400:-0.034085
12402:-0.0351135
12425:0.0166506
12438:-0.07096
12449:0.0794292
12459:0.0146686
12491:-0.0336987
12493:0.00581807
12502:0.0345997
12512:0.0351174
12521:0.00377518
12529:0.0697075
12536:-0.0283278
12537:0.0351883
12542:0.0350498
12544:0.0144087
12546:-0.0507991
12553:-0.0264195
12561:-0.0352859
12563:0.0355944
12572:-0.0326324
12581:0.0200009
12593:-0.0609824
12603:0.0287431
12604:0.034292
12605:-0.059629
12608:-0.0419925
12609:-0.0250228
12691:0.0355112
12693:-0.0513529
12717:-0.0507679
12721:-0.0159252
12724:-0.016171
12751:-0.0311494
12788:0.0042654
12795:0.0358494
12815:-0.0117573
12821:-0.0336537
12823:0.0625813
12829:0.0347103
12837:-0.0366555
12858:0.00827317
12864:-0.045177
12866:-0.0445286
12919:0.000777017
12920:-0.0208522
12921:0.0553388
12930:-0.0341702
12937:-0.0503603
12943:-0.0318876
12980:0.0594896
12981:0.00817449
12983:-0.0839397
12987:-0.0137558
13014:-0.0194504
13038:-0.0481651
13039:0.0350436
13049:0.0321211
13107:-0.0361668
13113:0.0761143
13132:0.000965558
13143:-0.031489
13157:-0.0165692
13168:-0.00913128
13176:0.0354055
13182:-0.0342667
13184:-0.0532516
13221:-0.0339011
13244:-0.0340975
13305:-0.049644
13324:-0.0434626
13332:-0.0535027
13342:-0.0355208
13363:-0.0344989
13381:0.0274103
13389:-0.0338541
13402:0.034716
13417:-0.0229743
13432:0.0169904
13437:-0.0596083
13468:-0.049142
13488:-0.0255872
13579:-0.00972758
13609:-0.000262654
13644:-0.0332887
13649:-0.042255
13659:-0.00317034
13681:-0.0378384
13686:-0.0335336
13697:-0.0362376
13717:-0.00368811
13719:0.0708301
13724:-0.0305012
13736:0.0530404
13745:-0.0345504
13755:-0.042606
13764:0.0354073
13765:0.0750234
13780:0.0514733
13792:0.00571855
13803:-0.0386886
13807:0.0134546
13811:0.000105692
13840:-0.0395218
13860:-0.0360903
13888:-0.0414279
13913:-0.0702484
13918:0.0531255
13923:0.0305766
13925:0.00455163
13939:-0.0240719
13950:-0.0472913
13968:0.0324613
13972:-0.0451699
13990:-0.0493726
14019:0.0362084
14027:-0.021688
14040:0.0531731
14051:-0.0376844
14099:-0.0317198
14103:-0.0470678
14107:-0.0148994
14142:0.0349993
14193:-0.0031277
14200:-0.05159
14203:-0.0240109
14210:-0.050167
14217:-0.0297784
14248:-0.0743978
14269:0.0359498
14321:-0.0816104
14327:0.0291368
14343:-0.0409332
14358:-0.00991001
14369:-0.0354309
14407:-0.00621032
14413:0.0140675
14436:-0.0375519
14500:0.0321589
14516:-0.062283
14535:-0.0139793
14565:-0.0392846
14583:-0.0049605
14589:0.0371515
14606:0.0350388
14608:0.0451423
14630:-0.0465434
14636:0.0443807
14637:0.0310211
14643:-0.00168394
14647:-0.0124415
14685:-0.0246397
14690:0.0194431
14723:-0.00440479
14752:0.00612201
14794:-0.0339362
14804:0.0295467
14832:-0.00854517
14866:-0.00193134
14881:0.0323882
14894:0.00922902
14908:-0.0328375
14943:-0.0331721
14979:-0.0335712
14992:-0.00596358
15001:-0.0334229
15082:0.0349618
15116:0.0358808
15132:-0.0310774
15136:-0.0119216
15148:0.0129492
15157:0.00131331
15158:0.0358578
15163:-0.0506355
15176:-0.0649753
15188:0.0478091
15199:-0.0354446
15201:0.036146
15253:-0.0387747
15288:0.0349689
15295:-0.0674617
15298:-0.027802
15356:-0.0832728
15367:-0.0137684
15373:0.0116031
15388:-0.0524215
15390:0.0303261
15415:0.0346324
15430:0.0502623
15436:0.0311819
15456:-0.0262024
15461:0.117333
15498:0.0352686
15509:0.0525938
15511:0.0345623
15533:-0.0367589
15569:0.00544545
15589:0.0283095
15598:0.0421068
15605:-0.0266098
15635:-0.0372345
15642:-0.0339187
15664:0.00274071
15670:-0.00511392
15680:-0.0505502
15685:-0.0331669
15691:-0.0047867
15692:-0.00148982
15714:0.014382
15749:0.000824971
15752:0.0328218
15778:-0.0421997
15780:-0.0340515
15783:0.00690347
15794:0.0322619
15800:-0.0187111
15817:0.00141852
15848:0.0493521
15853:-0.0340017
15867:-0.0609335
15890:-0.0693801
15909:0.00307897
15936:-0.0295903
15945:0.0320213
15961:0.0534829
15972:0.0499291
15984:-0.0405874
15991:0.0124891
15995:0.0205967
16008:-0.0305048
16036:0.032086
16063:-0.0151677
16066:0.0124622
16070:0.0354557
16083:-0.000393536
16088:-0.064027
16121:0.0345384
16131:-0.0819278
16138:0.0520901
16148:0.0328938
16160:0.0352808
16180:0.0519633
16192:-0.0336952
16204:-0.0265476
16219:0.0246885
16233:-0.00570984
16239:0.0158625
16240:-0.0149871
16243:0.0513207
16247:-0.0326215
16279:0.0529766
16289:-0.038833
16290:-0.0322959
16298:-0.0203341
16303:0.0529679
16313:0.0520205
16340:-0.0150981
16342:-0.0519431
16343:0.0380353
16344:-0.0329055
16380:-0.0179049
16384:-0.0330261
16392:-0.0179464
16418:0.0355728
16438:0.0691348
16445:-0.022023
16456:-0.047324
16463:0.0572743
16478:0.0341136
16482:0.0508809
16507:-0.0338561
16511:-0.0022089
16541:0.000275526
16556:0.0436991
16575:-0.0262242
16578:-0.0344438
16626:0.010391
16637:0.0344415
16646:-0.0345953
16673:0.0334179
16679:0.00119958
16686:0.0495726
16717:-0.0346305
16723:0.000326403
16746:-0.0965052
16778:0.0555162
16809:-0.0507396
16846:-0.0110511
16854:0.0764625
16938:-0.0646393
16996:-0.0491297
17013:-0.0355012
17017:0.0695565
17030:0.0355497
17044:0.0356141
17072:-0.0521129
17083:0.00509615
17103:-0.0306661
17104:-0.118119
17117:0.0304283
17128:0.00448533
17145:0.0316649
17189:-0.0297759
17191:0.0352983
17193:0.0476191
17219:-0.0336982
17236:-0.0339015
17243:0.0297694
17261:-0.0105511
17272:-0.0459619
17274:0.0021581
17290:0.0192506
17302:-0.0158605
17316:0.000485072
17317:0.0516265
17319:-0.00785674
17332:-0.0596712
17351:0.0349004
17361:-0.00255881
17367:-0.0624064
17386:0.0421957
17401:-0.0235033
17438:0.00174727
17454:-0.0153819
17460:0.0332337
17480:0.0882645
17484:-0.0524982
17489:-0.0321801
17492:-0.0179344
17498:0.032736
17539:-0.0305989
17542:-0.042289
17543:0.0103395
17567:-0.0341023
17609:-0.0031987
17625:0.0626912
17637:0.018703
17647:-0.03766
17687:-0.0365197
17734:-0.032211
17735:-0.00671536
17767:-0.0299604
17853:-0.161941
17912:-0.132129
17917:-0.0339032
17927:0.0363927
17935:-0.0112508
17990:-0.0122524
17993:-0.00109385
18001:0.0710263
18054:0.0241101
18064:0.0121603
18066:-0.0327855
18079:-0.0506399
18090:-0.0112274
18091:-0.0026198
18105:0.0106711
18119:-0.0339211
18136:-0.0256665
18166:0.0220145
18184:-0.0181051
18198:0.0340946
18216:-0.0137058
18239:-0.0723667
18241:-0.042498
18249:-0.0749234
18267:0.00429835
18277:-0.0468038
18278:-0.0260775
18288:-0.0272026
18345:-0.0775914
18353:0.0246751
18354:-0.0224364
18364:0.00329106
18370:-0.0348484
18413:-0.00578859
18426:0.03495
18445:0.00514352
18453:0.020397
18474:-0.00878367
18488:-0.0268994
18500:0.0276971
18504:0.0423841
18511:-0.0275128
18529:0.016878
18532:-0.0488823
18588:-0.000471073
18591:0.0355505
18595:0.014488
18598:0.0588658
18631:0.05059
18690:-0.0602964
18697:-0.0358842
18706:-0.0528862
18734:0.0345514
18738:0.0105714
18740:0.0200193
18778:0.0662687
18786:0.0288415
18790:-0.0345374
18801:0.0589551
18834:0.0241431
18896:-0.0322226
18900:-0.0351202
18906:0.036496
18907:-0.0355824
18918:-0.0342916
18940:0.0342175
19002:-0.0350208
19003:-0.0344126
19014:-0.0358633
19057:0.0651204
19064:0.035462
19087:0.00180365
19100:-0.0382765
19153:0.0180059
19177:-0.0309266
19186:-0.0917822
19198:-0.0333583
19213:-0.0387324
19217:-0.0342867
19220:-0.122727
19240:-0.0308368
19257:0.00963031
19275:-0.000434641
19284:-0.0115442
19288:-0.0335442
19336:-0.0441491
19412:-0.0505479
19455:0.0352636
19464:0.0355486
19466:0.0357393
19522:-0.00432841
19523:0.0338839
19531:0.0336218
19539:-0.0204379
19584:-0.0129085
19587:0.00721452
19599:-0.0080184
19612:-0.132973
19618:-0.00277758
19628:-0.0305742
19632:-0.0103946
19672:-0.0346855
19673:-0.0765166
19687:-0.0190981
19692:-0.0417365
19708:-0.0271325
19720:0.0685509
19729:0.0508418
19731:0.0344013
19746:-0.0335929
19757:-0.0246236
19758:-0.00586312
19773:-0.0638352
19775:0.0348782
19781:-0.0329345
19801:0.00834733
19810:0.0615802
19811:-0.0114214
19820:-0.0209792
19832:0.00572056
19837:-0.0207401
19858:-0.0243136
19873:-0.0391794
19921:-0.0308435
19957:-0.00487774
19962:-0.0650434
19973:0.012956
19975:-0.0739862
19995:-0.0303984
19998:0.0140545
20032:-0.0137764
20039:-0.013266
20088:0.0351613
20093:0.0206879
20096:0.0349286
20099:0.0345508
20107:0.0571041
20121:-0.046837
20130:0.036005
20157:0.0354318
20187:0.0228566
20227:-0.0247001
20238:-0.1322
20239:-0.00294128
20253:0.00437222
20284:-0.0498724
20287:-0.0210298
20289:-0.00206708
20290:-0.0102711
20297:0.0353877
20299:0.0190218
20302:-0.0359338
20309:0.0623094
20314:0.0757164
20317:-0.0646025
20334:-0.0218055
20335:0.0354525
20345:0.020188
20346:0.0344974
20365:0.034707
20396:0.0346457
20405:-0.0324348
20423:-0.0708178
20438:0.00461285
20441:-0.0115569
20457:-0.00121617
20469:-0.0433388
20485:-0.0495957
20508:0.0355614
20579:-0.0329257
20590:-0.0033754
20637:-0.0322557
20640:0.00319683
20655:-0.0511884
20696:0.0488023
20715:-0.0340033
20719:0.025238
20735:-0.0211873
20747:0.0171162
20749:-0.0763517
20789:0.0284468
20831:-0.0309031
20835:0.0352788
20867:0.0133752
20883:0.0338471
20889:0.0835877
20911:0.0483943
20918:0.00875011
20929:0.0356545
20949:0.00145588
20952:-0.00876036
20958:0.0528194
20965:0.00619713
20967:-0.105621
20998:0.000415285
21022:-0.0337813
21027:-0.100199
21031:-0.0727034
21090:0.0683505
21183:0.0349137
21184:0.0302949
21194:-0.0267064
21220:-0.0850507
21221:-0.0515009
21250:0.00620952
21262:0.0292263
21279:0.0159736
21298:0.0515439
21301:-0.0336592
21305:0.0335453
21310:0.0346713
21327:0.0198497
21339:0.00480163
21370:-0.00284044
21402:0.0351707
21425:0.0331272
21431:-0.00824931
21452:0.0349665
21469:-0.00995796
21483:-0.0341516
21498:-0.0262435
21499:-0.0360188
21517:0.043372
21530:-0.0840073
21567:0.0254649
21578:0.0436761
21605:0.0615584
21608:-0.00845748
21706:-0.0340714
21716:-0.0660426
21726:0.0664793
21731:-0.0336776
21750:0.0350677
21775:0.0356929
21798:-0.0300172
21803:-0.0982224
21893:0.0346266
21946:0.0448432
21971:0.0256991
21989:-0.0646359
21997:0.0395927
22016:-0.034631
22038:-0.0487175
22048:-0.0348906
22058:-0.0593806
22065:0.0208247
22078:-0.051968
22092:-0.0172533
22113:-0.0378239
22117:-0.0211365
22119:0.0353232
22133:-0.0335485
22137:-0.00917625
22139:-0.0853578
22141:0.00443647
22150:-0.0342046
22157:0.0530565
22165:0.0239697
22188:-0.0276723
22199:0.0341183
22200:-0.0594065
22206:-0.0271048
22209:-0.034032
22219:-0.0868736
22220:-0.0402154
22240:-0.0578287
22242:0.0358732
22324:0.0594667
22328:0.0329617
22333:-0.0488258
22338:0.0458854
22340:0.0409228
22369:-0.0136311
22375:-0.0364164
22379:0.0239816
22380:-0.0606484
22385:0.0203756
22387:-0.0377016
22390:0.00549051
22416:-0.0246622
22421:0.0560835
22484:0.0346963
22494:0.0039517
22495:-0.00623959
22513:0.0332118
22521:-0.0371705
22540:-0.0284756
22542:0.0382352
22546:0.0326159
22557:-0.0303492
22558:0.0376196
22569:-0.0327246
22574:-0.00753604
22590:-0.0381895
22593:-0.0725808
22599:-0.035547
22606:-0.0509843
22615:0.0499883
22622:-0.062526
22635:0.011213
22645:-0.0420587
22693:0.0643286
22696:0.0363943
22721:0.0367323
22735:0.0324048
22741:-0.0305989
22756:0.00170935
22782:0.0105764
22792:0.00446224
22815:0.0335524
22825:-0.0403666
22843:0.0191804
22846:-0.0785455
22866:0.714235
22912:0.00194759
22915:-0.0181978
22935:0.0100541
22946:0.0548955
22950:-0.0358237
22984:0.0103419
23006:0.0321346
23038:0.0350446
23059:-0.0351688
23067:-0.000876041
23072:0.0191389
23110:-0.0351206
23140:0.0353658
23180:-0.0627063
23188:-0.0332026
23206:-0.0217037
23227:-0.0027391
23238:0.00120482
23240:0.00257579
23280:0.0133126
23288:0.0293824
23319:-0.0499436
23320:0.00794704
23324:-0.034085
23331:0.0340342
23333:0.0185801
23376:-0.0760195
23418:-0.00143004
23424:-0.0868173
23436:-0.0332872
23462:-0.133777
23500:-0.0323633
23501:-0.00819344
23602:-0.0662613
23632:-0.0339737
23661:0.0343851
23667:-0.0344929
23685:0.0359284
23702:-0.00440875
23721:0.0689853
23734:0.00485569
23745:0.0189953
23756:-0.0280032
23778:-0.0302145
23779:0.00193742
23788:0.0352583
23832:-0.000416629
23865:-0.0335451
23879:-0.0331194
23895:-0.0319171
23903:0.0885497
23909:0.0356248
23935:0.0345804
23937:-0.000431462
23965:0.0353846
23995:-0.0285833
24011:-0.0407883
24026:0.0121728
24043:0.0299039
24089:-0.0347732
24105:0.034065
24141:-0.0300504
24146:-0.0334961
24156:-0.00256189
24212:-0.0106833
24219:-0.0435983
24237:-0.049771
24239:0.002456
24242:-0.0473995
24287:-0.0189308
24312:-0.0331035
24316:0.00292983
24322:-0.0165844
24333:0.0329189
24347:-0.0320152
24359:0.0420056
24367:-0.0643751
24376:-0.0285838
24417:-0.0153618
24432:-0.0493692
24454:0.0310976
24455:-0.0179519
24481:0.0337157
24482:0.034843
24518:0.00605883
24559:-0.0258077
24561:-0.0518919
24571:-0.0324044
24585:0.0270756
24586:0.0213541
24595:-0.0483041
24599:-0.0335732
24616:-0.0333504
24630:0.000366967
24642:0.0360901
24682:0.035236
24689:-0.0341012
24697:-0.0426051
24708:0.0594454
24730:0.0341778
24732:0.0393794
24795:-0.0339143
24801:0.0345384
24849:0.000366967
24864:0.0344835
24876:-0.0341572
24908:0.000791509
24914:0.0327212
24950:0.0360473
24960:0.0344236
24976:0.164216
25008:-0.0832279
25029:0.0311468
25035:-0.0351168
25052:-0.0050192
25065:0.0201973
25080:0.0318463
25162:-0.0270205
25165:-0.0312986
25174:0.0336191
25183:0.0367101
25206:-0.745274
25229:0.0427119
25241:0.0202919
25245:-0.0339779
25247:0.0510931
25262:0.0026471
25316:0.0352831
25328:-0.0520508
25337:-0.017322
25347:0.0346426
25348:0.0348437
25359:-0.0108379
25368:0.0315054
25370:-0.0368053
25397:-0.0211658
25416:0.0165002
25423:0.0322932
25477:-0.0356869
25491:-0.000337704
25513:-0.0327396
25515:-0.0514954
25520:-0.00645253
25523:-0.0290163
25534:-0.0527428
25539:-0.0249329
25573:-0.0634044
25584:-0.03435
25609:0.0317861
25629:0.0135453
25654:-0.0911664
25691:-0.0336019
25726:0.0651238
25741:0.03344
25765:0.0521912
25818:-0.0615123
25826:-0.0725478
25835:-0.00584405
25855:0.0351212
25869:0.00504692
25873:-0.0170725
25897:0.0302387
25898:-0.0333861
25904:0.0310429
25911:0.0344479
25915:-0.0340915
25920:-0.0489656
25935:-0.0175931
25936:-0.0927274
25955:-0.0630461
25960:0.0511095
26009:-0.0460423
26022:0.0299791
26028:0.0414234
26030:-0.0292039
26048:-0.058866
26050:0.030094
26070:0.0147234
26085:-0.00137677
26086:-0.0302491
26090:0.0353254
26105:0.0286986
26110:0.0335274
26128:0.014509
26134:-0.0358627
26140:0.0154232
26144:0.0131717
26168:0.0243675
26175:-0.0515647
26177:-0.0205814
26179:0.034894
26187:-0.0105053
26191:-0.0329471
26208:0.00257166
26219:-0.00232747
26228:0.0343677
26240:0.0533199
26277:0.0283878
26305:0.0058638
26310:-0.0204208
26343:0.034405
26344:-0.0319085
26389:-0.0724336
26393:0.174408
26420:-0.0506471
26448:0.0336621
26455:0.0186831
26464:0.0347741
26482:-0.0326931
26510:-0.0662862
26539:-0.0336513
26583:-0.0327996
26595:-0.0301531
26625:0.0341319
26645:0.00166731
26659:-0.0327411
26702:0.0131328
26710:-0.0995694
26719:0.0125297
26723:0.0180307
26731:0.0348759
26739:0.0351117
26740:-0.0441381
26744:-0.0526156
26783:-0.0342082
26804:-0.0183314
26814:0.00317834
26835:0.0337208
26865:0.0345665
26897:-0.045964
26901:-0.0132427
26909:0.00743687
26919:0.0636602
26946:0.0102402
26966:-0.0418483
26969:0.000992413
26989:-0.0318726
26991:-0.0301442
27046:-0.0209977
27049:0.00471396
27056:-0.0343033
27066:-0.0550095
27082:-0.0150394
27124:-0.0500093
27131:-0.0487017
27147:0.0305078
27184:0.0358104
27185:0.0247458
27231:-0.0359822
27238:0.00351712
27268:-0.0657473
27280:0.0460342
27282:-0.0273589
27284:0.0348598
27342:-0.0318505
27344:-0.0335939
27375:0.0462151
27404:0.0352923
27407:0.0185537
27422:-0.0507392
27423:0.0103151
27426:-0.0318728
27439:-0.017431
27452:-0.0339812
27525:-0.0652654
27531:0.0224544
27535:0.0123405
27554:0.00647229
27572:-0.00422324
27577:-0.0322024
27589:0.00859644
27592:0.0337808
27632:-0.000197866
27656:-0.0767029
27671:-0.0110462
27726:-0.00978992
27744:0.0344008
27751:0.0526114
27766:-0.0357757
27786:0.115731
27812:0.0338991
27813:0.0172786
27822:0.0487562
27829:-0.0291678
27851:0.0275016
27880:-0.00392875
27891:0.0337544
27898:-0.0676639
27915:0.0321346
27950:0.0341512
27959:0.0371515
27961:-0.00332175
27975:-0.035996
28008:0.00358976
28021:-0.0123074
28029:0.0364423
28038:-0.030509
28054:-0.0378135
28058:-0.02333
28078:0.0468195
28102:-0.0424351
28116:0.0351269
28122:-0.00579838
28129:0.0708264
28130:0.0361937
28147:-0.0456897
28150:0.0572932
28151:-0.0346956
28176:-0.0288638
28190:-0.0521502
28256:0.0137265
28278:-0.0607104
28338:0.0688649
28341:-0.095013
28346:-0.0627298
28358:-0.0347935
28362:-0.0478502
28371:-0.0347477
28388:-0.096516
28415:-0.0272355
28416:0.00932255
28445:-0.0431822
28452:-0.0577137
28486:0.00668992
28491:0.0244699
28492:-0.0355937
28497:0.033747
28498:-0.0498103
28515:-0.0340854
28527:0.0976848
28550:-0.0515662
28560:0.0928599
28564:-0.033482
28571:0.00917455
28588:0.0128838
28589:0.00225738
28607:0.00277659
28613:-0.0166574
28619:-0.0312032
28623:-0.0335655
28634:-0.0259381
28641:-0.075635
28646:0.0603241
28664:-0.0348588
28665:-0.0455133
28670:-0.0329205
28676:0.0378588
28679:0.0507014
28702:0.0344617
28703:-0.0345282
28777:-0.0748112
28780:-0.0423361
28812:0.0348756
28828:-0.0906711
28834:-0.0320333
28861:0.0367023
28862:-0.0372222
28869:-0.0359344
28873:0.0480381
28878:-0.000437048
28904:-0.0465341
28906:0.0357112
28912:-0.0259931
28920:-0.0100737
28921:0.0765295
28975:-0.03385
28977:-0.0159292
28982:-0.00439727
28993:-0.0208207
29020:0.0236448
29032:0.0349431
29039:-0.030045
29046:0.0245879
29081:-0.0538132
29100:-0.014665
29127:-0.026448
29145:0.0439611
29183:0.00203596
29191:0.0346351
29200:0.0103168
29209:0.00474279
29210:0.0117356
29212:-0.0582721
29213:-0.0333488
29228:0.0125654
29252:-0.0584397
29297:0.0195053
29306:0.0498122
29314:-0.0510149
29335:0.055247
29338:0.0314796
29343:-0.000878733
29350:0.044268
29363:-0.0305854
29365:0.0343837
29394:0.0262669
29402:-0.088257
29425:-0.0347559
29430:0.00983281
29450:-0.0191588
29451:0.0856388
29454:-0.00325881
29475:-0.0335508
29486:-0.0493047
29510:-0.0254901
29512:-0.142862
29548:-0.0670754
29570:-0.0423199
29575:-0.03357
29603:-0.09678
29626:-0.0633335
29643:-0.0348477
29697:-0.0137623
29701:-0.0141819
29704:-0.0337308
29708:0.0284439
29709:-0.0640033
29720:-0.0157658
29731:-0.0397161
29747:0.0662941
29762:-0.0460057
29772:0.0354897
29779:-0.0336672
29831:-0.035066
29946:0.0357495
29949:0.0578171
29952:0.0516019
29978:0.0342819
29991:0.0127808
30000:-0.034468
30001:0.0101843
30014:-0.00536328
30018:0.0683185
30030:0.00665515
30058:0.0426261
30062:-0.0528647
30086:-0.00576614
30093:0.0146053
30101:-0.0148833
30110:-0.0330155
30119:0.00254422
30130:0.0454963
30156:-0.0254771
30196:-0.0351469
30230:0.0318391
30254:0.025401
30301:-0.0292294
30306:0.0433173
30317:-0.0172985
30357:-0.0490805
30372:-0.0375852
30374:0.0337369
30384:-0.0308204
30393:-0.0347474
30394:0.0353713
30407:0.0358047
30418:0.0389998
30423:0.0467564
30424:-0.0493599
30442:-0.0496659
30448:0.0286326
30496:0.0342763
30511:0.0565256
30524:-0.034482
30546:-0.0632867
30561:-0.049676
30565:-0.0193953
30584:-0.0456429
30618:-0.0140832
30628:-0.0528849
30647:0.0123518
30661:-0.0751639
30684:0.0346
30701:0.0353939
30756:0.00381741
30758:-0.0463332
30762:-0.00989902
30763:-0.013069
30776:-0.000467635
30803:-0.031068
30816:-0.0295627
30818:-0.0281511
30819:0.036385
30822:-0.0312582
30825:-0.0352219
30871:0.0349653
30892:0.0356155
30893:-0.0329517
30901:0.0171778
30906:-0.03368
30933:-0.0328189
30969:-0.00410482
30980:0.0332906
30988:0.0363528
30989:-0.0343981
31054:-0.0048775
31069:-0.0316523
31081:-0.00741003
31099:0.0567198
31105:0.034511
31109:0.0348282
31116:-0.0368182
31128:0.0337128
31145:-0.0114316
31164:-0.033738
31179:-0.0302443
31193:-0.0337387
31264:0.0113295
31272:-0.0126377
31276:-0.0807048
31282:-0.00651677
31318:-0.0191332
31334:-0.0184302
31342:0.0184755
31344:-0.0507859
31349:-0.062851
31357:-0.0333303
31386:0.0341256
31393:0.0649379
31430:-0.0301448
31446:-0.0533384
31468:0.0245069
31486:0.0339978
31493:0.00358715
31504:0.0530672
31553:-0.0313298
31566:0.0351284
31583:-0.0134892
31608:0.031229
31655:-0.0304986
31657:0.0303578
31692:-0.0557266
31711:-0.034583
31717:-0.0877009
31721:-0.0148492
31725:-0.025404
31727:0.035035
31731:-0.0610103
31738:0.0197761
31765:0.032838
31766:-0.0635345
31773:-0.0490091
31778:0.0186845
31807:0.0354344
31819:0.0029615
31821:0.0352623
31834:0.0348761
31842:0.034354
31854:0.0329339
31862:0.0354597
31924:-0.0364145
31953:0.0471196
31959:0.00235535
31997:0.0792061
32007:-0.0602687
32012:0.0475777
32031:-0.0291915
32041:0.0739055
32065:-0.0111781
32068:-0.0310159
32083:-0.0456663
32107:-0.0505119
32139:0.0344479
32156:0.0174999
32161:-0.033592
32195:0.0382076
32208:-0.0330295
32223:0.0354196
32239:-0.00450466
32245:-0.0328102
32249:0.0621508
32250:-0.0983465
32281:0.00515939
32341:-0.0307712
32346:-0.0149462
32408:-0.0766711
32411:-0.0366734
32435:-0.0655782
32472:-0.031239
32474:-0.0620878
32497:0.0342816
32509:0.0313775
32517:-0.000774862
32577:-0.0331625
32592:-0.0327461
32644:-0.0339493
32648:0.0324013
32661:0.0340545
32671:-0.0452456
32672:-0.00551115
32679:-0.00262194
32694:-0.042499
32726:0.0200492
32730:0.0348183
32738:0.0426205
32753:0.0325886
32762:0.062628
32826:-0.035942
32830:-0.0379325
32858:0.013605
32859:-0.0188822
32883:-0.0728327
32892:-0.0323319
32894:0.0579237
32906:0.0343192
32928:-0.0349991
32932:0.0363328
32955:0.0380737
32968:-0.0157926
32975:-0.0335211
32978:0.025894
33004:-0.0431733
33012:-0.12005
33043:-0.00946052
33044:-0.0348502
33071:0.0632195
33077:0.0156864
33112:-0.00940276
33130:-0.07096
33174:-0.0910801
33186:-0.0418967
33220:0.0322459
33274:-0.00814841
33294:-0.0188001
33312:-0.0339876
33354:0.0209573
33374:0.03302
33383:0.0529526
33402:-0.0619095
33418:0.0175141
33419:0.0355935
33428:0.00520854
33505:-0.0104989
33510:0.000377694
33550:-0.0133397
33553:0.0241987
33574:-0.0342312
33615:0.032352
33665:-0.0550877
33671:-0.0340024
33673:0.0678288
33679:-0.0283232
33712:0.0340812
33714:-0.00942284
33726:-0.032658
33727:0.00460381
33750:-0.032293
33758:-0.00785103
33833:-0.0122004
33872:0.0267474
33898:0.0295299
33945:-0.0465143
33957:0.00643123
33974:-0.0341187
33981:0.0590537
33983:0.0687026
33984:0.0395937
34003:0.0372218
34032:0.0461678
34040:-0.0119808
34044:-0.0334317
34064:-0.0370636
34075:-0.0589506
34100:0.0156919
34104:0.0335487
34112:-0.0289133
34178:-0.0468241
34214:-0.0143447
34248:-0.0328468
34256:-0.0365371
34287:0.0225886
34310:0.0280015
34314:0.0322111
34316:0.0349613
34335:0.0354695
34346:-0.0334311
34378:-0.0341953
34390:0.0198495
34414:-0.0340651
34420:-0.0206211
34421:0.0363097
34432:-0.0752239
34454:0.0029223
34461:0.0459727
34463:-0.0747066
34482:-0.0141426
34500:0.0120694
34511:0.0344741
34523:0.0345377
34594:-0.04724
34630:0.00689336
34631:-0.0861904
34648:0.0121791
34673:-0.005032
34712:-0.0343071
34761:-0.0459705
34771:-0.0217849
34788:0.0467772
34796:0.0283864
34797:0.0100317
34803:-0.0674622
34808:-0.00500717
34812:0.00350217
34815:-0.0220688
34816:-0.00116847
34819:-0.00511696
34836:0.0117628
34839:0.00578971
34854:0.0288149
34883:-0.0211143
34913:-0.0663224
34946:-0.033369
34985:-0.03387
35020:-0.0315954
35028:-0.0571591
35059:0.0222921
35087:-0.019102
35098:0.0262474
35101:-0.031223
35115:0.0383653
35133:0.0113201
35137:-0.0170701
35160:-0.0344522
35162:0.0354466
35172:0.039673
35205:-0.0435983
35221:-0.0579659
35227:-0.00810211
35232:0.023062
35258:-0.0436149
35271:0.0206879
35282:-0.0326677
35283:0.0345478
35318:-0.0292488
35322:0.0347591
35327:0.0607547
35333:-0.0103098
35337:0.0354743
35388:-0.0806066
35390:-0.011191
35391:0.0339114
35425:-0.0355167
35429:-0.0366495
35433:0.0354383
35450:-0.00151511
35465:-0.0346288
35495:-0.104829
35502:0.0361296
35503:-0.0364733
35554:-0.0361424
35581:-0.0492769
35621:-0.0197191
35623:0.0441129
35643:0.0251857
35645:0.0240853
35687:-0.0485635
35688:0.0520063
35711:0.035887
35712:0.00183412
35718:-0.0660975
35733:0.00820308
35737:0.0252688
35740:0.0392757
35815:-0.0500414
35845:0.00319683
35878:-0.031068
35933:0.0356399
35964:-0.0334042
35989:-0.00788034
36029:-0.0350877
36051:0.0341754
36069:0.00120651
36103:-0.0336247
36123:-0.0341886
36164:-0.0493047
36175:-0.0500717
36179:0.00654065
36183:-0.0348111
36200:-0.0505668
36222:-0.0331781
36236:0.0487105
36244:-0.0430165
36259:-0.0284199
36283:-0.0258041
36303:-0.00834289
36304:-0.0505014
36333:-0.0253137
36353:0.00105483
36375:-0.0343849
36398:0.0788102
36417:-0.0493747
36421:-0.00530744
36424:0.00467402
36433:-0.0338731
36449:-0.00706545
36451:0.0351586
36469:-0.0345818
36488:-0.0194147
36494:-0.0104772
36496:0.00640303
36602:0.0112139
36604:0.0250295
36648:-0.0336527
36660:-0.0502083
36666:0.0017969
36671:0.028524
36675:-0.0415149
36681:-0.033671
36687:0.0255719
36693:-0.0364289
36760:-0.00927888
36769:0.0357578
36785:-0.0268627
36797:-0.0345182
36833:-0.0476893
36861:0.00985851
36868:-0.0342006
36880:0.00350217
36894:-0.08039
36899:0.0490755
36902:-0.0138013
36917:0.0501011
36920:0.0310944
36938:-0.0628688
36939:-0.0140832
36942:-0.0295514
36960:0.0353335
36966:0.00343888
36995:0.0326551
37007:-0.0476152
37008:-0.052783
37017:-0.0262717
37034:0.0112611
37035:0.0341811
37071:0.0160386
37104:-0.0216705
37121:0.0271631
37130:0.0345298
37147:0.0155825
37153:-0.0306646
37201:0.034644
37207:-0.0277879
37213:-0.03054
37237:-0.0513636
37266:0.0343947
37285:-0.0753915
37296:0.0209046
37312:-0.0337597
37316:0.0104167
37320:-0.018895
37321:0.0158221
37324:-0.0102793
37327:0.00154932
37359:-0.0206257
37363:-0.0459803
37382:0.0283803
37385:-0.0358237
37388:-0.00700667
37401:-0.00452037
37446:-0.0393089
37460:-0.0614791
37494:-0.0321168
37559:-0.0141092
37585:-0.0422259
37600:0.00240438
37615:-0.0659294
37640:0.00837818
37655:-0.0309763
37659:0.035788
37729:0.035777
37747:0.00858499
37755:0.00647749
37794:-0.0319811
37807:-0.0519309
37812:-0.0197616
37819:-0.0354875
37846:0.0303499
37872:0.0339916
37875:0.030666
37883:-0.00670686
37890:-0.0534921
37894:-0.00159159
37896:-0.0335523
37950:-0.0104482
37954:-0.0319512
37963:-0.0217043
37973:-0.0181053
37984:-0.0281141
38014:-0.0324291
38017:-0.0710218
38018:0.00978803
38058:-0.0196752
38068:-0.0345163
38073:-0.0262694
38090:0.00590087
38102:-0.0270939
38127:-0.0343331
38142:-0.0509521
38143:0.0356765
38147:-0.031762
38191:-0.0344944
38201:-0.00643801
38214:0.0350206
38216:0.0346283
38232:0.0509103
38245:0.117614
38294:0.00215834
38315:-0.0464518
38333:-0.00375472
38341:0.0277964
38351:-0.0329475
38370:-0.0333696
38381:-0.00140494
38385:-0.00752542
38386:0.0352008
38391:-0.0650124
38393:0.00125981
38405:-0.0342244
38414:0.00805214
38443:-0.10094
38476:-0.000337704
38497:0.0182642
38499:-0.0310891
38596:0.0138294
38605:-0.0323033
38606:-0.000445575
38638:-0.0342277
38672:0.0184236
38688:0.0341863
38696:-0.0339538
38707:0.0285629
38712:0.0753544
38727:0.0355505
38733:0.0322087
38749:0.0628758
38764:-0.0598127
38767:0.00698203
38783:-0.0343144
38806:-0.0419503
38823:-0.0459226
38844:0.0246632
38845:-0.0318388
38853:-0.00546273
38857:0.0113002
38859:-0.0336066
38866:0.030796
38871:0.0260497
38882:0.0138778
38885:0.0710667
38890:-0.0330479
38895:-0.0340471
38923:0.0613547
38935:-0.0486865
38937:-0.0350299
38938:-0.03471
38959:0.0332539
38966:0.0189946
38971:-0.0215039
38995:0.0194402
39006:0.000521194
39014:-0.0348277
39026:0.00744478
39030:-0.104293
39033:-0.0332693
39049:0.0361214
39071:-0.029651
39134:-0.0587903
39139:-0.0875524
39152:0.13984
39155:0.0353136
39166:0.0163785
39181:-0.065799
39228:0.0440019
39240:0.0431851
39247:0.0253557
39258:-0.0259981
39262:-0.0218914
39301:-0.0339961
39314:-0.0353167
39322:0.0145155
39345:0.0240272
39351:0.00537373
39353:-0.031528
39364:-0.0343557
39396:-0.049803
39403:-0.0225011
39408:0.03401
39428:0.041129
39451:0.00509869
39485:-0.0388559
39490:0.0811477
39499:-0.024823
39508:-0.00796543
39513:0.0517942
39539:0.034825
39544:-0.0328428
39552:-0.000878549
39555:0.0548384
39581:0.0151461
39585:0.00278879
39600:-0.033519
39647:-0.0515756
39648:0.00254723
39674:0.0297817
39700:-0.0510305
39707:0.0271583
39710:-0.0339069
39721:0.00186348
39726:-0.0385256
39766:0.0766546
39787:-0.0238662
39803:0.031872
39831:-0.0448312
39838:-0.0519786
39843:0.0275983
39866:-0.0330602
39879:0.0456979
39880:0.0130216
39893:-0.00520745
39908:-0.0742734
39914:-0.000724397
39920:0.0665483
39940:-0.0220773
39953:-0.0599046
39968:0.035582
40013:-0.0319364
40025:-0.0611127
40078:0.0355279
40086:-0.0362023
40095:-0.0341657
40104:0.0343919
40117:0.0353699
40124:0.034617
40131:0.0342009
40133:-0.074147
40143:0.00348252
40199:-0.0328972
40274:0.0183598
40276:-0.0354217
40282:-0.0703414
40293:0.0250151
40313:-0.0288985
40335:-0.03347
40358:-0.051812
40386:-0.0455993
40392:0.035427
40404:0.0344883
40405:0.0242098
40410:-0.0336412
40417:0.00237184
40490:-0.030801
40532:-0.0333456
40537:0.0365635
40555:0.0290761
40599:-0.0342274
40616:-0.111422
40662:0.0111404
40672:0.00594419
40692:-0.0300175
40708:-0.0497818
40716:-0.0336585
40727:-0.0357123
40756:-0.0303741
40757:-0.0284256
40781:0.0246198
40815:-0.0346764
40820:0.0209406
40823:-0.0138491
40847:-0.0307927
40853:-0.0284584
40898:0.0109928
40912:0.0233478
40914:0.0288722
40938:0.0346159
40940:-0.0343154
40965:-0.0340821
40984:-0.0343327
41040:-0.0519857
41044:-0.00973802
41108:-0.0325641
41117:-0.0343971
41129:-0.0371155
41142:-0.0067715
41158:-0.0494148
41190:-0.0459876
41195:0.0291228
41227:-0.0257022
41257:-0.0772131
41281:-0.0519354
41289:-0.0342777
41291:-0.0439206
41292:-0.0153798
41350:-0.0783509
41393:0.0335453
41395:-0.0458791
41410:-0.033539
41413:0.018124
41473:-0.0307355
41477:0.0235738
41480:-0.0260052
41488:-0.0159054
41499:0.0353091
41513:-0.0338536
41525:-0.0307798
41526:0.000600385
41532:0.0534219
41581:-0.0283729
41585:0.0170126
41604:0.0101876
41629:-0.00355476
41632:-0.0511414
41636:-0.0333431
41685:-0.0336371
41686:0.0621728
41706:0.0337858
41710:-0.0467545
41750:0.0350449
41761:-0.0602732
41763:-0.0344512
41837:0.00229034
41844:-0.00962517
41859:0.035512
41862:-0.0341677
41872:-0.0336748
41886:0.0281703
41926:-0.0353589
41930:0.0658273
41947:-0.0271641
41950:-0.0342209
42003:-0.0483392
42004:0.00468441
42038:-0.010885
42056:-0.0596138
42067:-0.0338854
42083:-0.0128368
42088:0.024441
42156:-0.0456663
42161:-0.0503699
42178:0.0434743
42202:-0.000833662
42264:0.0518538
42279:-0.113918
42322:0.0065642
42326:0.0566311
42385:-0.0339457
42439:-0.00554399
42452:-0.0350833
42466:0.0624842
42476:0.0330933
42492:-0.0149597
42543:0.0573271
42583:0.00129384
42617:-0.0678817
42639:0.0355917
42643:-0.00163828
42644:0.0250343
42666:-0.0162554
42694:0.0351698
42695:0.0410184
42703:-0.000367482
42743:0.0163969
42753:0.00472063
42770:-0.0462998
42799:-0.0188969
42803:0.0354612
42805:-0.032678
42841:0.0196273
42861:0.000832193
42864:0.0278684
42870:0.00381714
42890:-0.0125575
42909:-0.0168102
42914:0.042495
42934:-0.00367442
42942:0.0398627
42955:0.0345732
42959:-0.0663047
42980:0.0765933
42990:0.0303045
42992:0.03709
42993:0.0238753
43004:0.00138186
43044:0.0415301
43058:0.0350053
43066:0.0193766
43117:-0.00180043
43149:-0.000153005
43153:-0.00321365
43159:-0.0492625
43186:-0.0318259
43202:-0.0639537
43203:0.0517456
43209:0.0461358
43219:0.0359919
43222:-0.024718
43248:0.02154
43249:-0.0518402
43250:-0.0377525
43257:-0.0440468
43270:-0.0172097
43274:0.0013491
43291:-0.0525575
43333:-0.0214872
43334:-0.0153922
43378:-0.0423765
43406:-0.0342627
43418:0.0520953
43427:0.0262204
43499:-0.0349797
43509:0.0313089
43511:-0.00930895
43534:0.052501
43550:0.00232415
43591:-0.063509
43603:0.00106575
43625:-0.0544574
43629:-0.0417515
43647:0.0345333
43693:-0.0760221
43697:-0.0342849
43739:0.0173312
43741:0.0295293
43836:-0.0318287
43848:-0.0386865
43900:0.0528988
43937:-0.0323511
43971:-0.0364441
43977:0.00596195
43979:0.00619257
43994:0.0414013
44003:-0.0112152
44015:0.0117256
44023:-0.0736515
44065:0.0342768
44089:0.0323808
44098:-0.00284054
44109:-0.0276605
44116:-0.0282907
44123:0.0294475
44131:-0.0582284
44153:-0.0354567
44154:0.0509572
44205:-0.0322088
44214:-0.036153
44230:-0.0339695
44250:-0.00612041
44259:0.0303561
44266:0.0493237
44269:-0.0122127
44307:0.00879764
44313:0.0289114
44335:-0.0551144
44348:0.0358068
44352:0.0126971
44400:-0.0350786
44405:0.100973
44413:-0.0318517
44425:0.0270995
44438:0.00140062
44460:0.0343843
44483:-0.0401969
44487:-0.0435015
44526:0.00252491
44529:-0.0433231
44537:0.0351413
44572:-0.0300877
44585:0.0346294
44606:0.0349564
44628:0.0271486
44640:0.0360873
44656:0.0591926
44672:-0.0178279
44739:-0.0326516
44755:-0.0451764
44759:-0.0153113
44762:0.0039488
44808:0.0332908
44827:0.0058638
44834:-0.0322088
44866:0.0114644
44885:-0.0670107
44888:-0.0144459
44918:-0.0313653
44965:0.030451
44976:-0.0322691
44978:-0.0288421
44980:-0.0287619
44986:-0.0171304
45004:0.0350984
45009:-0.0243844
45010:-0.0520492
45015:-0.00131051
45035:-0.0323336
45042:0.0354694
45052:0.035411
45057:-0.0967463
45060:0.0523801
45087:-0.0275818
45104:0.0296329
45110:0.0314522
45111:-0.0242644
45121:-0.0302997
45129:-0.0597451
45183:0.023387
45217:-0.0269749
45221:0.00598235
45235:-0.0764652
45244:0.0617162
45245:0.00961121
45261:-0.0225325
45279:0.0346551
45287:0.050106
45313:-0.0639859
45324:-0.0333218
45335:-0.0395567
45339:-0.0723195
45361:-0.00675895
45362:0.0142062
45366:-0.0198968
45373:-0.034468
45407:-0.0666501
45419:0.0519919
45452:0.0594161
45474:-0.0306691
45480:-0.0334343
45500:0.0195642
45521:-0.0300521
45522:-0.0339406
45563:0.0420299
45586:-0.0306224
45588:0.0553321
45602:-0.023363
45617:-0.0796455
45634:-0.0458815
45663:-0.0161686
45671:5.64446e-05
45685:0.0152039
45719:-0.00250323
45722:0.0354752
45723:-0.0349188
45728:-0.0393393
45731:0.0071472
45749:-0.0463392
45755:-0.0050652
45770:-0.00283422
45799:-0.0575872
45820:-0.0210147
45828:-0.045227
45858:-0.00277829
45881:-0.0884897
45906:0.00184364
45910:0.0229707
45915:0.0343498
45950:0.0509769
45957:-0.0311377
45992:-0.0058944
46063:0.0230222
46069:-0.0010412
46110:0.0263626
46112:-0.0339499
46141:0.0314934
46148:0.0621149
46151:0.0301853
46167:0.034228
46175:-0.0074923
46179:-0.0338336
46218:-0.0141841
46225:-0.0323591
46375:-0.0333337
46383:0.0240685
46389:-0.0308416
46400:-0.0338732
46420:-0.0154787
46425:0.011308
46443:-0.0704641
46469:0.0691913
46583:-0.0271085
46605:0.0351473
46669:-0.047982
46672:0.0338961
46728:-0.0140649
46754:-0.0563585
46756:0.060124
46768:0.055354
46840:-0.0327731
46870:-0.00865515
46871:0.026323
46876:-0.066045
46879:-0.0294082
46894:-0.0299175
46920:-0.0538001
46930:-0.0300424
46933:-0.0500893
46955:0.00277573
46966:-0.00775079
46980:-0.0443661
46981:-0.035505
46988:-0.0329563
47001:-0.00565342
47004:0.00418586
47005:0.00691496
47030:0.0519437
47037:-0.0504489
47040:0.031956
47045:-0.0329066
47074:-0.0354968
47089:0.0554113
47105:-0.0176913
47107:-0.10823
47112:-0.00701672
47124:0.0487215
47140:0.0342207
47181:0.0156766
47221:-0.0499633
47241:-0.0134298
47246:-0.0496716
47247:-0.0382239
47257:0.0543324
47286:0.0262574
47301:-0.0230827
47339:0.0352175
47362:-0.00231963
47363:-0.0338265
47364:-0.0332597
47376:0.0312423
47418:-0.0508735
47424:-0.0940094
47450:0.0537341
47471:-0.00215779
47472:-0.0303635
47513:-0.0458447
47538:-0.0366156
47570:0.0348056
47579:0.0312392
47595:-0.0175698
47604:-0.044811
47627:0.0526088
47632:-0.0337158
47642:0.0342623
47652:0.00840173
47665:0.0410596
47680:-0.0319916
47706:0.0716561
47737:-0.0274669
47752:-0.0342396
47757:0.0358752
47767:-0.0342
47794:-0.0336264
47811:0.00879779
47815:0.0355523
47831:0.051781
47840:0.00969762
47872:-0.0506606
47906:-0.0505479
47933:-0.0484082
47955:-0.033618
47960:-0.0356933
47962:0.0235811
47983:-0.0499944
47985:-0.0568886
47987:0.0378019
48002:-0.0357909
48017:0.0107002
48019:-0.0560917
48026:0.0599534
48058:-0.00340443
48069:-0.0343464
48099:-0.0170964
48118:0.023353
48171:-0.0509901
48203:-0.0657755
48212:0.0156112
48214:0.0978283
48228:-0.0156303
48229:-0.0643927
48252:-0.0348581
48253:-0.0144798
48262:-0.0623467
48268:-0.0942406
48278:0.0352014
48285:0.0350398
48299:0.0351045
48308:0.0352467
48318:-0.0177151
48319:-0.0317646
48326:0.000321979
48329:-0.0729398
48340:-0.0342479
48345:-0.0235276
48346:-0.00987713
48354:-0.0429255
48360:-0.00431565
48414:0.00586922
48438:-0.0690403
48446:0.00295559
48449:0.0347887
48452:0.0630612
48503:-0.040243
48510:0.0223757
48521:-0.0329257
48532:-0.0100475
48540:-0.0292979
48565:-0.0326837
48585:-0.032354
48605:-0.049503
48622:0.0354752
48637:-0.00425217
48673:-0.0347038
48674:0.031956
48712:-0.0499319
48717:-0.0441791
48725:-0.0552478
48742:-0.0346429
48754:-0.00623959
48778:-0.000394554
48785:0.0359399
48810:-0.0337308
48847:-0.0336107
48852:-0.0519113
48863:-0.0270939
48909:0.00123659
48918:0.0335058
48933:0.00853115
48954:0.0346956
48964:-0.0333262
48975:-0.0336694
48977:0.0129014
49040:-0.0408276
49081:-0.0409289
49102:-0.0347547
49110:0.0439213
49111:0.00776834
49130:0.0215467
49134:0.0356404
49136:-0.0320037
49139:-0.0067715
49140:0.0107471
49162:-0.0364876
49249:-0.0301988
49284:0.0351736
49312:0.0417883
49317:-0.00956568
49351:-0.073527
49361:-0.031664
49375:0.0983797
49398:-0.0633384
49424:0.000939303
49459:0.0350255
49470:-0.0635923
49483:-0.0575615
49528:-0.0335379
49544:-0.0325878
49551:0.035494
49601:-0.0334788
49614:-0.0330408
49619:-0.0333965
49631:-0.0309068
49676:0.0174566
49719:0.0352317
49729:-0.0183464
49731:0.0643811
49740:0.0256014
49759:-0.00323696
49773:-0.0339679
49821:-0.0735596
49850:-0.0305623
49855:0.0471167
49867:-0.0109704
49872:-0.0481352
49879:0.0470531
49887:0.0415053
49893:0.0355216
49899:-0.0415193
49913:-0.0294079
49917:0.0142112
49925:-0.0358092
49928:0.0346687
50027:0.00300446
50059:-0.034509
50112:-0.00532048
50150:0.0364038
50176:0.048098
50201:-0.0352001
50218:0.00119254
50227:-0.0345079
50283:0.0169566
50327:-0.00348577
50347:0.00377518
50412:-0.0328207
50417:-0.0420889
50421:0.0280982
50424:0.0759455
50441:0.0169762
50468:0.00303185
50512:-0.0290576
50527:-0.0331321
50558:0.00920245
50567:-0.115342
50577:-0.00778339
50587:-0.067955
50598:-0.0119056
50611:-0.0336393
50615:0.0454223
50622:-0.039803
50641:0.00640302
50652:-0.0499555
50663:0.0339203
50673:-0.0128176
50698:-0.0345385
50709:-0.0401954
50716:-0.0315162
50726:-0.067995
50738:-0.0036015
50746:0.0268183
50825:0.020033
50836:-0.00884344
50918:0.034613
50935:-0.0215763
50956:-0.0480152
50970:-0.0624783
51021:-0.051533
51034:-0.0602266
51043:0.0360084
51085:-0.0492155
51096:-0.022377
51169:-0.018508
51181:-0.00713301
51221:-0.000817528
51223:-0.0326213
51241:0.0508994
51313:-0.00397603
51320:-0.024047
51346:0.0125662
51361:-0.00752521
51362:-0.0317701
51386:0.0486275
51387:-0.0338387
51482:-0.0518651
51518:-0.010375
51535:0.00318603
51561:0.0842182
51601:-0.000597464
51653:0.00114316
51665:-0.0331929
51672:0.0338367
51678:-0.111725
51698:-0.0480784
51718:0.00619726
51726:-0.0331705
51735:0.00951267
51736:0.049935
51752:-0.0340854
51765:-0.0337174
51767:-0.0486867
51769:-0.0341369
51817:-0.0190479
51826:0.010361
51827:0.0272327
51836:0.0346218
51846:0.00789744
51896:-0.0503894
51907:-0.0348811
51911:0.0344151
51935:-0.0327329
52012:-0.0361957
52075:0.0426265
52098:-0.0527712
52131:-0.0633497
52150:0.00391885
52168:0.0353832
52174:-0.0326857
52198:0.0593267
52205:0.00288216
52223:0.0499133
52250:-0.00641722
52272:0.0343866
52279:-0.0129768
52296:-0.0435363
52308:0.0311847
52318:0.0492464
52358:-0.0630507
52374:0.0301811
52392:0.0382462
52409:-0.0853404
52419:-0.0147865
52454:0.0112763
52504:0.0329551
52506:-0.078807
52529:-0.000354009
52532:0.0114332
52534:0.0396798
52551:0.0121922
52582:0.0337096
52682:-0.0226388
52687:-0.0326428
52691:-0.0348472
52693:-0.0498447
52720:-0.0296275
52764:-0.0448967
52782:-0.117569
52795:0.0166739
52810:0.0521633
52877:0.0407919
52880:-0.0529704
52884:0.0130907
52912:-0.0434064
52914:-0.0525749
52938:-0.0223617
52939:0.0198296
52946:-0.0315272
52984:0.0289416
52990:-0.0311906
52995:0.0517855
53000:-0.0159237
53013:0.0518158
53093:-0.0470678
53116:-0.0245267
53135:-0.0330237
53185:-0.0496213
53205:-0.0975568
53229:0.0121927
53234:-0.0643296
53241:0.0549771
53270:-0.0321571
53341:-0.0257453
53351:0.035422
53354:0.0349751
53357:-0.0252336
53377:0.00948179
53378:-0.0841249
53390:-0.0291307
53436:-0.0335828
53443:0.0349869
53450:-0.0464444
53476:-0.0127635
53478:0.0143391
53486:0.0330506
53518:-0.030173
53525:-0.0634165
53536:0.0349869
53548:-0.033644
53551:0.0362573
53567:0.0519418
53585:-0.0355667
53595:-0.0363323
53663:0.0526486
53678:-0.0708405
53713:0.0538537
53754:-0.00262347
53773:-0.0341139
53784:-0.0294309
53824:0.0188044
53831:0.0319491
53872:-0.0336168
53880:-0.0623085
53881:-0.0489578
53884:0.0321516
53903:-0.0168029
53983:-0.0225011
54008:-0.0192222
54026:0.0349665
54046:-0.0452733
54057:-0.0178605
54058:0.0322475
54063:0.000297061
54143:-0.00847278
54146:-0.0334514
54153:-0.00504849
54166:0.0247786
54181:0.029239
54190:0.0173456
54191:-0.0035126
54200:-0.0354397
54210:-0.0463771
54257:-0.0343066
54259:-0.049719
54275:-0.0350367
54291:0.0351138
54303:0.0348771
54309:-0.0521081
54331:-0.0223209
54345:0.0235454
54420:-0.00549119
54427:-0.0338574
54451:-0.0296851
54454:-0.0287939
54491:0.0130369
54493:0.00673794
54494:-0.0512161
54515:-0.0347285
54525:-0.0505899
54536:0.0057985
54559:-0.0243499
54603:-0.0394898
54618:0.0345608
54630:-0.0123044
54646:0.035422
54651:-0.0330666
54660:-0.0180358
54662:0.0537308
54666:-0.0341657
54744:-0.0717584
54757:-0.0148116
54759:0.00156434
54761:0.0350982
54763:-0.0355878
54764:0.0205426
54778:0.0171797
54779:-0.0335387
54789:0.0351936
54803:-0.0501431
54836:-0.0280836
54847:-0.0519293
54854:-0.0323597
54862:-0.0618782
54874:-0.0164096
54878:-0.0112508
54887:0.0350512
54906:0.0352675
54912:-0.0330164
54917:-0.042426
54919:-0.033135
54967:-0.0709628
54968:-0.0332729
54974:0.0331221
54984:-0.00904865
54985:0.0280855
54995:0.0324884
55015:-0.00362772
55019:0.0335746
55064:-0.0334443
55065:-0.0305315
55070:-0.0316475
55075:-0.0309541
55082:-0.0365339
55088:-0.0301698
55118:0.0078838
55151:-0.0072818
55154:-0.0346969
55162:0.0225583
55177:-0.00257056
55232:0.00672827
55272:-0.00220382
55289:-0.0332061
55314:-0.0707022
55331:-0.0482822
55344:-0.015418
55346:0.00105759
55349:-0.0622671
55357:-0.0104729
55386:0.0353998
55387:-0.0204577
55409:-0.0164243
55411:0.0184546
55413:0.0171568
55422:-0.0140088
55428:0.0789686
55455:0.00262685
55489:0.0337413
55492:0.0211795
55495:-0.0359034
55505:0.00851631
55510:-0.0349661
55535:0.0267777
55552:0.00320568
55577:-0.0369513
55589:-0.0520528
55650:-0.0682988
55652:0.0520998
55707:0.0546603
55730:0.00932957
55739:0.0103467
55824:0.0327735
55837:0.0306271
55866:-0.0310998
55872:-0.0462131
55873:-0.0440386
55906:-0.0331683
55915:0.049602
55923:-0.0738874
55928:-0.0127694
56000:0.0276663
56059:-0.0586585
56069:0.0290391
56078:-0.0154632
56108:-0.0338037
56112:-0.00843865
56140:-0.0425696
56205:-0.0352086
56213:-0.0359361
56220:-0.0339317
56243:0.0207256
56244:-0.0758572
56271:-0.0354968
56283:0.0313635
56309:0.0335155
56321:-0.03551
56338:-0.00330751
56339:-0.00605851
56353:0.0217517
56363:-0.0325881
56392:-0.0330237
56405:0.0356765
56429:-0.00138255
56434:-0.035305
56454:0.0228902
56466:-0.00452536
56497:0.0164641
56504:-0.0962748
56512:0.0244451
56544:0.029348
56579:-0.0603424
56580:0.0189579
56593:-0.0054093
56594:0.0282196
56599:0.0161171
56601:-0.0357261
56604:-0.117094
56610:0.0501869
56614:-0.04759
56664:-0.016305
56686:-0.016384
56696:-0.0582043
56701:-0.00968264
56705:-0.0421232
56706:-0.010711
56738:0.0587249
56739:-0.00323524
56828:-0.0498761
56831:-0.075271
56840:-0.00446601
56854:0.0352568
56937:-0.0344929
56956:-0.0646571
56964:0.0227111
56978:0.0348866
57034:-0.00260928
57039:-0.0522653
57048:0.0414182
57074:0.00839767
57117:0.0349697
57127:0.0355088
57230:-0.0737893
57245:0.00995468
57288:0.0349202
57315:0.0192286
57318:-0.0445555
57329:0.0358269
57330:0.0526468
57345:-0.00709845
57352:0.0419191
57353:-0.0344408
57365:0.0349992
57380:0.00824676
57420:0.0508245
57421:-0.0317508
57442:-0.0449102
57463:-0.0709226
57483:-0.0274843
57534:-0.0233525
57559:-0.0352317
57589:0.0355508
57600:0.0394131
57615:-0.0318776
57616:-0.0657051
57620:0.0173864
57637:0.051021
57647:-0.034429
57680:-0.0441892
57682:0.0549003
57703:-0.035353
57719:0.0182133
57773:-0.0359046
57776:0.00291166
57786:-0.0324715
57788:-0.0329117
57829:0.0345465
57833:0.0167058
57847:-0.0558133
57854:-0.0337775
57857:-0.0331782
57865:-0.0422955
57878:0.0614723
57898:0.0343872
57903:-0.0194168
57934:0.0370004
57935:-0.0185886
57951:-0.0340344
57977:0.0530568
58013:0.0355737
58018:-0.0138993
58034:-0.00469769
58035:0.0345083
58062:0.0110292
58066:-0.0363496
58068:-0.0212528
58072:0.00479427
58084:-0.117569
58140:-0.0331101
58184:-0.033853
58198:-0.052154
58223:-0.0285849
58247:-0.0339948
58251:0.0534864
58263:-0.0486244
58269:-0.0101281
58271:-0.0352407
58291:0.0345733
58304:-0.0181273
58311:-0.0310428
58316:0.00772419
58317:0.0353338
58329:0.040974
58330:0.00501764
58335:0.00758309
58344:-0.00667269
58354:0.0143408
58379:-0.0490773
58390:-0.0335323
58400:0.0304623
58416:0.0354435
58480:-0.0609108
58483:-0.102785
58505:-0.0334351
58531:0.0213215
58534:-0.059553
58542:-0.0312342
58570:0.0323089
58591:0.0181555
58601:-0.0613433
58610:-0.0818571
58611:0.0172596
58624:0.00564416
58632:-0.0356515
58633:-0.0625848
58680:0.0522939
58684:-0.0239165
58695:-0.0578367
58712:-0.00769628
58713:-0.0326942
58736:-0.00612956
58746:0.0170382
58829:-0.0508823
58830:-0.0354856
58840:-0.0482775
58843:-0.00130332
58848:0.0225125
58849:0.0353528
58882:0.0348743
58887:-0.0343289
58888:-0.0274553
58889:0.0346839
58890:-0.0309946
58892:-0.0318837
58900:-0.0120586
58921:0.0774718
58950:-0.0361445
58953:-0.0621902
58960:-0.00405853
58995:-0.0346525
59006:-0.0479665
59031:0.0176346
59069:0.00735113
59081:-0.0505086
59107:-0.0509896
59119:0.0105167
59121:0.0119526
59143:-0.0582439
59146:-0.0314002
59176:0.0434011
59181:0.0216597
59199:-0.00797779
59208:-0.0492537
59274:0.0097046
59277:-0.0074429
59302:-0.0220749
59315:0.0348872
59330:-0.0827775
59342:-0.0641048
59353:-0.0247882
59355:-0.0163222
59366:-0.0170376
59400:0.0423831
59436:0.0330828
59444:0.00771426
59453:-0.076041
59496:0.0356785
59525:-0.00606175
59528:-0.0329983
59534:-0.03368
59547:0.0355572
59552:0.00762596
59581:0.000674977
59623:-0.00906092
59635:0.0108405
59657:-0.0276775
59680:-0.0249143
59688:-0.0342726
59717:0.0356707
59734:-0.0598147
59735:-0.0842096
59750:0.0270628
59755:0.0357235
59765:0.0320294
59775:-0.0434764
59811:-0.0861667
59828:-0.0353006
59831:-0.0339653
59839:-0.0900858
59875:-0.0290783
59888:-0.0288729
59899:0.0356851
59904:0.0240812
59932:-0.0334163
59940:-0.0322392
60015:-0.00219795
60040:0.0512889
60130:-0.0483753
60153:-0.059634
60168:-0.0463836
60174:0.0356363
60175:0.00736615
60181:0.0489218
60206:0.0098683
60217:-0.0446226
60241:-0.0273711
60251:-0.106347
60256:0.0331358
60261:-0.0251561
60262:0.0356654
60266:-0.0341581
60319:-0.0420571
60330:-0.031097
60335:-0.0639605
60366:-0.044295
60378:-0.000613929
60388:-0.0419205
60393:0.000728653
60398:-0.0370546
60409:0.0112364
60424:0.035216
60440:0.00411157
60451:-0.0161526
60456:-0.0105009
60458:0.00596842
60466:-0.0296502
60485:-0.0509532
60501:-0.0514364
60512:-0.00231963
60513:-0.0338859
60514:0.0396663
60527:0.0328199
60541:0.0324987
60612:-0.0232841
60619:-0.0353637
60630:0.0353119
60636:-0.0304731
60712:-0.0268552
60718:0.0394042
60745:-0.0330259
60754:-0.0338872
60773:0.00937239
60776:-0.0334788
60778:0.0315101
60802:-0.0335402
60808:0.0347988
60809:-0.0353502
60826:0.022169
60836:0.00973212
60846:-0.0502594
60866:-0.051812
60894:0.0352743
60914:-0.0817384
60945:0.0361917
60963:0.0177864
60987:0.00645093
60988:-0.0292347
60992:-0.0312138
60999:0.0338642
61018:-0.00961076
61021:-0.0131882
61033:-0.0519857
61055:0.0347094
61065:0.00579761
61080:0.0301242
61082:0.105013
61120:0.0226726
61136:0.0323982
61147:-0.0350723
61161:0.00557074
61180:0.0287291
61182:-0.0442441
61189:-0.026788
61210:0.0350683
61219:-0.0155371
61226:-0.00437171
61228:0.0271971
61233:-0.0326016
61235:0.0139843
61284:0.00509869
61308:-0.0357757
61321:-0.0332543
61353:-0.0331244
61358:-0.0157812
61367:-0.0326215
61404:0.03499
61419:-0.0152361
61422:-0.000517777
61423:-0.00437613
61424:-0.0665557
61429:0.00701764
61462:0.00569354
61469:0.00560027
61477:0.0351758
61486:0.0346188
61500:0.0347137
61506:-0.0287273
61520:0.00104842
61566:-0.0326507
61570:-0.0355427
61578:-0.0328843
61613:0.0327873
61629:0.0516091
61634:-0.0381661
61635:-0.0363239
61656:0.0360215
61659:-0.0338605
61664:-0.0321679
61678:-0.0586645
61695:-0.0824153
61706:-0.0590202
61715:-0.100978
61725:-0.154953
61741:-0.0060271
61744:-0.0335562
61747:-0.00318594
61766:0.04978
61811:0.010605
61823:0.0360311
61865:-0.0324286
61916:0.0320799
61923:-0.00923506
61945:0.0357702
61963:0.0407794
61973:0.00110006
61982:0.00307955
61984:0.0338608
62000:-0.032885
62024:-0.0878852
62032:0.0347396
62051:-0.0528906
62080:-0.0173568
62082:-0.030494
62094:-0.0357471
62112:-0.0506054
62114:0.0361346
62130:-0.0471595
62133:0.00735712
62137:-0.0671853
62156:0.0453156
62180:0.0345524
62192:-0.0332394
62216:-0.0492555
62232:-0.0341535
62274:0.0317748
62292:-0.0518046
62303:-0.039515
62313:0.0637514
62329:0.0222117
62347:0.0339791
62351:-0.0511579
62360:0.0770616
62368:-0.0215635
62379:-0.0338713
62425:0.00627777
62427:-0.0493431
62464:0.0328463
62488:0.0513017
62506:-0.0509058
62544:-0.0503249
62546:0.0350615
62560:-0.00293965
62636:0.0139552
62644:-0.0360358
62660:0.0117855
62677:0.0279842
62678:-0.0206498
62747:0.0349279
62778:-0.0147683
62816:0.00652627
62830:-0.0331284
62831:0.0345045
62849:0.0339618
62874:-0.0260421
62891:0.00128047
62915:-0.0297274
62927:-0.059572
62935:-0.0311769
62947:-3.04337e-05
62983:-0.0327918
62985:-0.0312582
63027:-0.00439139
63032:-0.0320366
63037:-0.034778
63042:0.0527405
63047:-0.0325588
63095:0.022646
63097:0.0551153
63103:-0.0326147
63109:0.0320502
63167:-0.0393876
63188:-0.0413686
63191:-0.0321317
63210:-0.0334389
63218:0.0370004
63221:0.0528437
63229:-0.028971
63243:-0.0331531
63247:-0.033935
63253:0.00675962
63259:-0.0359856
63270:-0.0329591
63275:-0.014958
63314:0.0504335
63317:0.0533577
63318:-0.0460985
63327:0.00596971
63345:-0.073581
63347:-0.0426948
63366:0.00754013
63371:-0.0137164
63378:0.0354104
63451:-0.0619039
63456:-0.0339164
63459:-0.00768491
63460:-0.0342719
63488:0.0725018
63497:0.0160058
63537:-0.04183
63539:-0.0319632
63548:-0.0493125
63549:-0.0335882
63553:0.0230909
63555:-0.0685258
63572:-0.0337288
63590:-0.0405432
63600:-0.0526883
63618:-0.0161301
63621:0.016444
63623:-0.03668
63646:-0.0469063
63666:0.0554484
63667:-0.0333687
63671:0.0400624
63685:0.000463965
63691:-0.0419462
63704:0.0116734
63722:0.0172032
63725:-0.0352222
63732:0.0602753
63764:-0.00609542
63772:-0.0312477
63805:-0.00497472
63904:-0.0495982
63906:0.00761269
63919:0.0104081
63968:0.11969
63983:-0.0352541
64003:0.0228217
64015:0.00982938
64016:-0.0531906
64018:0.0353914
64021:-0.0747933
64027:0.0302122
64032:0.0493102
64037:-0.0287199
64047:-0.0171022
64075:0.0349742
64079:-0.0511294
64080:0.0796455
64089:-0.0331767
64105:-0.0343793
64111:-0.0520492
64118:-0.049562
64125:-0.0154601
64127:0.0328759
64146:0.0348054
64155:-0.0222868
64180:-0.0252392
64211:-0.00588896
64230:-0.0360646
64232:-0.00514721
64233:0.0350071
64304:-0.0514243
64311:0.0599752
64342:-0.0332743
64358:0.0270995
64366:-0.0313396
64375:0.00807357
64390:-0.0401674
64403:-0.0337362
64448:-0.0338605
64453:0.0344456
64460:-0.0559505
64483:0.0328946
64528:0.00753703
64551:0.000347705
64560:-0.0332546
64569:-0.063762
64631:0.0354582
64640:-4.86046e-05
64703:0.04475
64705:-0.0362412
64716:-0.0785585
64719:-0.0140818
64779:0.00695513
64782:-0.0270035
64783:-0.0332337
64793:0.035743
64820:-0.0273846
64834:0.0299273
64838:0.0451344
64839:0.0140235
64902:0.0430136
64929:-0.0324981
64953:0.0264943
64958:-0.0123044
64959:-0.0300003
64960:0.0417593
64979:-0.0331674
64982:0.0348853
65004:-0.0287406
65032:-0.0329611
65043:0.0615592
65076:0.0348455
65106:0.0357228
65114:-0.0542577
65116:0.024368
65126:-0.0336748
65130:0.0155296
65160:0.0518164
65169:-0.0336252
65172:-0.0295405
65195:-0.0336471
65202:-0.0522275
65205:-0.0466996
65216:0.00404039
65220:0.0348713
65229:-0.0489937
65233:-0.0697663
65235:-0.0335592
65252:-0.0362442
65255:-0.0359561
65312:0.0455845
65314:-0.0283394
65339:-0.0718902
65380:-0.0324635
65391:-0.0350716
65445:-0.0337613
65458:-0.0514338
65468:-0.0259959
65500:-0.0414621
65527:-0.0573885
65554:0.0256961
65606:0.0115754
65610:0.0347538
65611:0.0335672
65625:-0.00174197
65655:-0.038803
65711:-0.0731615
65743:-0.000596986
65771:-0.0305989
65777:-0.00091739
65783:0.0352658
65798:-0.0139576
65801:0.0275689
65826:-0.0343515
65834:-0.0332964
65848:0.136721
65861:0.0227627
65869:-0.0364382
65895:-0.0370004
65897:0.0101682
65928:-0.0406936
65931:0.0427816
65953:-0.0482246
65971:0.0304939
65991:-0.086682
66006:0.0361361
66014:0.0271078
66036:-0.0961614
66044:0.0024573
66061:-0.0292062
66079:-0.0206975
66122:0.0208889
66154:-0.202384
66167:0.0807751
66172:0.0427887
66187:-0.0398504
66205:-0.015189
66209:-0.0171922
66223:-0.0171788
66281:-0.0328641
66299:-0.0311058
66319:0.0631886
66342:0.0075301
66371:-0.0121078
66393:0.0343123
66489:-0.0320152
66510:0.0322746
66524:0.0639707
66526:0.0474063
66533:0.0390443
66591:0.0518372
66593:0.0348073
66603:0.0052118
66609:0.0361426
66631:-0.0143963
66663:0.0186384
66688:-0.0486031
66694:-0.0312543
66707:-0.0391904
66725:-0.0443713
66731:-0.0338585
66754:0.0439267
66761:0.0573891
66782:0.0352718
66789:-0.0114093
66799:-0.025588
66814:0.00382025
66827:0.0780504
66854:0.0353045
66867:-0.0336882
66868:0.0339381
66870:0.000183471
66873:-0.0197594
66888:-0.0547097
66901:0.0378422
66916:0.0338367
66925:0.0702163
66943:0.0150893
66952:0.0876524
66960:-0.0479269
67000:0.03263
67034:0.0354864
67044:0.0399829
67081:-0.0522522
67086:0.0482333
67106:0.0377609
67108:0.023174
67119:0.0192394
67165:-0.0656784
67216:0.0510249
67240:-0.0358469
67292:0.0282698
67301:-0.03766
67315:0.0093477
67329:-0.00422088
67343:0.0364513
67365:0.0345244
67378:-0.00205412
67385:-0.0354526
67410:-0.0315282
67419:-0.0319664
67420:0.00330113
67456:-0.0350154
67457:0.0116019
67476:-0.0473995
67477:-0.0381751
67496:-0.0333671
67499:-0.060337
67537:-0.0308345
67554:0.0277653
67565:-0.0370371
67596:0.033943
67605:-0.00212039
67686:0.0406948
67687:0.0349421
67729:-0.033328
67731:0.058244
67734:-0.247917
67767:-0.0179713
67771:-0.0290054
67802:-0.0339692
67890:-0.0120578
67930:-0.0135724
67963:-0.0365852
67964:0.00932255
67968:-0.034421
67977:-0.0384348
67998:0.0179548
68042:-0.0213498
68044:-0.000904996
68050:0.0353206
68060:-0.0081382
68108:0.0355377
68120:0.0171954
68148:0.0449679
68168:0.028141
68236:-0.00447744
68256:0.0136142
68265:0.0305158
68278:-0.0838636
68305:-0.00497722
68309:-0.00198517
68312:0.0142679
68316:0.0306629
68336:-0.0335912
68338:-0.112255
68372:-0.00101721
68417:-0.0484396
68424:0.0247255
68470:-0.0337963
68478:0.0334264
68486:0.0344447
68533:-0.0292745
68570:0.0256908
68581:-0.031402
68613:-0.0319095
68618:0.0338456
68629:0.0353541
68635:0.0355949
68654:0.0535343
68678:-0.0377951
68745:-0.0326477
68774:0.00319395
68795:0.0502047
68802:0.0165015
68819:-0.0139615
68822:0.0539334
68823:0.0334148
68824:-0.040759
68825:-0.035846
68866:-0.0234566
68867:-0.0608789
68896:0.0695028
68900:0.00253804
68909:-0.0430387
68918:-0.0276231
68927:0.0195655
68928:0.0355419
68939:0.0133628
68942:0.0212268
68985:-0.033886
68991:0.012717
69006:0.0350129
69016:0.0661757
69022:-0.0727853
69038:-0.047552
69047:-0.0937115
69063:-0.049841
69090:-0.0341903
69117:-0.0330353
69141:-0.0519283
69155:-0.012854
69177:0.0393442
69180:-0.0236649
69194:0.0310211
69217:-0.00513088
69244:0.0175609
69274:-0.0325485
69290:0.0476839
69311:0.00210552
69324:0.0327537
69334:0.00792639
69432:-0.0638478
69442:0.0362303
69448:-0.0640803
69459:-0.00823446
69481:0.0426947
69495:-0.0326601
69501:-0.00650755
69526:-0.0329025
69527:-0.0570709
69529:-0.0331903
69548:-0.0195302
69553:-0.00190818
69577:0.00506148
69616:-0.0307848
69624:0.0265091
69631:0.0208841
69643:-0.000649316
69653:0.02918
69662:-0.0583635
69693:0.0345333
69708:-0.0169827
69743:0.034265
69783:0.0356689
69789:-0.0026667
69793:0.032358
69794:-0.00473426
69807:-0.0466771
69811:0.00847074
69824:-0.0333191
69861:0.0345589
69893:-0.0507672
69910:0.0381556
69923:0.049236
69948:-0.0335761
69966:0.0292728
69972:0.0141247
69984:0.0236003
69992:-0.031924
70018:-0.0314363
70047:0.0948969
70051:0.00115088
70073:-0.042908
70078:-0.0141798
70081:0.0062045
70136:-0.059629
70179:-0.0255926
70215:-0.0438012
70262:-0.032351
70270:0.0236034
70290:-0.0331896
70311:-0.0339353
70322:0.064217
70332:-0.0148482
70346:0.0274557
70363:-0.0850763
70379:-0.0240532
70389:0.0355212
70398:0.0351411
70429:-0.0244829
70479:-0.0615324
70488:-0.0341721
70498:-0.00172243
70502:-0.0361601
70513:-0.0347189
70517:-0.000801196
70536:-0.0478161
70562:0.0355318
70567:-0.0619256
70569:-0.0150345
70586:-0.0341894
70593:-0.0520711
70605:-0.0148994
70618:0.00894312
70663:-0.0560187
70665:-0.0394319
70681:-0.0661922
70688:0.0411443
70692:0.0327459
70700:-0.0612797
70713:0.035756
70734:0.0199607
70736:-0.0324819
70744:0.0336232
70748:-0.0335516
70782:0.00418586
70784:-0.00907634
70803:-0.0441684
70819:-0.0394481
70826:0.0347538
70829:0.0347538
70844:-0.0103122
70856:0.0324576
70859:0.0354333
70875:0.00533842
70897:-0.0518534
70963:0.0334398
71002:0.0276079
71019:-0.00514898
71089:-0.0791719
71092:-0.0506068
71107:-0.0388789
71144:-0.0332347
71147:-0.00437317
71185:-0.0445875
71197:-0.0488235
71223:0.0170138
71257:-0.0332831
71260:0.0535271
71299:-0.0336179
71344:-0.00426114
71379:-0.045652
71409:0.00210721
71444:-0.0517534
71447:-0.0351029
71454:-0.0282449
71473:-0.0360294
71479:0.028882
71480:-0.00869686
71485:-0.0174823
71504:0.0679931
71523:0.0129975
71528:-0.0816536
71543:-0.0336099
71551:-0.0320419
71552:0.0103083
71563:0.0321039
71589:-0.0437388
71593:-0.0373541
71594:-0.0303503
71611:-0.00573412
71662:-0.0230493
71665:-0.0521078
71682:-0.0132852
71692:-0.0294012
71700:-0.0194268
71728:-0.0426303
71734:-0.0181976
71739:0.0350247
71745:-0.0328743
71786:-0.0497818
71794:-0.112689
71800:-0.019659
71801:-0.0174899
71819:0.0447902
71832:-0.0487302
71861:-0.041702
71870:0.0356414
71871:0.01885
71885:0.0347366
71947:-0.0351312
71954:-0.0333418
71966:0.0517869
72024:0.0300821
72033:0.0178243
72035:-0.0340069
72038:-0.00550752
72040:0.00273251
72046:-0.0341679
72060:0.0239742
72066:-0.0491757
72069:-0.0473995
72117:-0.0291381
72133:0.00573017
72137:0.00814132
72142:0.05387
72170:0.00386849
72173:-0.0348841
72180:-0.0455338
72195:-0.0971981
72200:0.0418537
72202:-0.0400997
72206:-0.0342381
72209:0.00636008
72213:0.0350261
72223:0.032961
72229:0.0321764
72241:-0.0338198
72249:-1.7414
72253:-0.0388357
72267:-0.00865515
72295:0.0586243
72300:-0.0332606
72318:-0.0352884
72393:0.0341245
72408:0.0526303
72414:-0.0228031
72444:-0.033342
72451:0.0362636
72461:-0.0339546
72485:-0.0378625
72486:0.0352129
72490:-0.0712948
72491:0.0400668
72498:-0.0680811
72518:0.00661027
72520:-0.0343153
72527:-0.0465317
72531:-0.00169634
72532:-0.0158404
72537:-0.0518888
72544:-0.0422409
72549:-0.0146898
72570:0.0153052
72573:-0.033501
72592:-0.0342531
72617:-0.0246033
72640:0.0526808
72674:-0.0339395
72677:-0.0323256
72715:0.0195595
72723:0.0145769
72733:0.0487643
72738:-0.0222051
72747:-0.0037352
72775:-0.0174208
72793:0.0364019
72794:-0.00983189
72845:0.00825323
72862:-0.00941572
72921:0.00152659
72952:0.048388
72961:0.0113287
72996:0.0024762
73002:0.0354335
73048:-0.0642261
73055:-0.0325886
73071:-0.014477
73075:0.0201394
73076:0.0300483
73087:0.0379311
73089:0.0345024
73102:-0.0336484
73111:-0.05937
73114:-0.0703184
73128:-0.00341197
73131:0.00710558
73150:-0.054725
73159:0.0118837
73174:0.00218384
73195:-0.0241669
73205:0.00620536
73223:0.0458156
73244:-0.0346167
73299:-0.0107458
73314:-0.0685671
73319:-0.0243797
73326:0.0198128
73332:0.0343035
73361:-0.0316824
73365:0.0354903
73377:0.00378427
73388:0.0339443
73415:-0.0342764
73419:0.0778957
73430:-0.0462934
73433:-0.0585245
73436:-0.0727873
73459:0.0398354
73480:0.0431364
73483:0.0356765
73501:-0.0121469
73524:0.0174956
73546:0.0318575
73560:-0.00897786
73564:0.030097
73599:0.0660414
73606:-0.0321662
73645:0.00939293
73665:-0.0320639
73667:-0.0319134
73688:-0.0426841
73697:-0.0213411
73723:-0.0218146
73736:0.0542774
73738:0.0338546
73761:-0.0289396
73787:0.00594581
73789:0.0362496
73796:0.0429287
73800:0.0391951
73870:0.0352504
73912:0.0196027
73933:-0.0493803
73936:-0.0325373
73949:-0.0619308
73986:0.00321476
74035:-0.0264971
74044:-0.0527985
74085:-0.011004
74092:-0.0349124
74122:-0.034511
74154:-0.0184745
74174:0.0126619
74182:-0.0649949
74220:0.0355131
74229:0.0350205
74242:0.0350241
74263:0.0462929
74274:-0.0339468
74284:-0.011769
74286:-0.0603424
74310:-0.0138635
74344:0.0593285
74348:0.0336236
74370:-0.0636913
74392:-0.0209996
74402:0.0182827
74436:0.00439533
74467:-0.0489252
74491:-0.022088
74492:0.0192148
74500:0.0348399
74564:-0.0345617
74573:-0.0158857
74587:-0.051761
74597:-0.0678571
74630:-0.0334725
74633:-0.0165276
74645:0.0300821
74684:0.0421502
74693:0.0358975
74791:0.00874449
74798:-0.0333768
74799:-0.0317044
74800:-0.0295318
74816:-0.0301586
74821:0.018458
74837:-0.00831482
74838:-0.0304621
74846:0.0513205
74856:-0.0392479
74872:0.0159889
74886:0.0501552
74895:0.0143727
74901:0.0351634
74902:-0.0325373
74956:-0.0313211
74969:-0.012009
74983:0.00269973
74990:-0.0505035
75009:0.0271128
75020:-0.0308348
75051:-0.0337685
75062:0.0125678
75074:0.0563488
75078:-0.0330479
75085:0.0179291
75091:-0.017629
75104:0.0351065
75120:-0.0362251
75125:-0.00726158
75144:0.0118413
75150:-0.0342338
75152:-0.0544072
75155:-0.0435249
75184:0.00526088
75188:-0.0337237
75199:0.00453925
75202:0.0105569
75237:0.0348277
75265:0.00373135
75288:0.0349075
75312:0.0454945
75317:0.00752521
75340:-0.00822703
75347:0.0216884
75368:-0.0540309
75372:0.0285874
75379:-0.0301519
75430:-0.0332606
75446:-0.0343096
75525:-0.0338539
75608:-0.0456244
75609:-0.0636477
75623:-0.0322796
75648:0.0347175
75660:-0.0497517
75674:0.0231994
75701:0.033835
75715:-0.023363
75736:-0.00904696
75755:-0.0334399
75804:-0.0319463
75820:-0.0513212
75824:-0.0494315
75826:0.0444846
75842:-0.0316489
75883:-0.0331576
75913:-0.051186
75921:-0.0505048
75930:0.0173765
75931:0.0183942
75947:-0.00268065
75951:-0.0589177
75960:0.035791
75975:-0.0477415
75992:0.0354541
76005:-0.0259603
76019:0.0343697
76020:0.0171443
76039:0.0281005
76042:-0.0320786
76050:-0.0848846
76059:0.0341652
76064:0.030633
76070:-0.0258325
76085:-0.0868731
76104:0.0412675
76138:0.0367893
76140:-0.0335504
76162:0.0239074
76230:0.0273988
76253:-0.0731869
76289:0.0274923
76290:-0.0123791
76318:0.0677279
76324:-0.000650741
76327:0.0479944
76341:-0.0479169
76343:-0.00932224
76363:-0.015526
76392:0.0276359
76400:-0.0506554
76426:-0.0107121
76442:-0.0161771
76450:0.0481297
76504:0.00858693
76521:0.0360708
76529:-0.0333951
76537:0.0520271
76546:0.00944555
76565:-0.0338448
76612:-0.0348668
76690:0.0342363
76698:-0.0324937
76703:0.0359989
76730:0.000196891
76731:0.00827488
76738:-0.032185
76745:0.0328515
76747:0.0521955
76755:0.0208674
76791:0.0136655
76803:-0.0109815
76813:-0.0360358
76836:-0.0303651
76851:-0.0331929
76967:-0.0542675
76989:-0.0474851
76993:0.0216587
76994:-0.0333969
77000:-0.0140088
77101:0.00542928
77107:0.0571829
77110:-0.0135587
77116:0.0705405
77130:0.0242576
77139:-0.0308162
77170:0.0287347
77180:-0.0142496
77222:0.029079
77240:0.0272822
77270:0.0010416
77290:0.0347094
77302:-0.034242
77309:0.0206828
77315:-0.0821845
77319:0.0348508
77346:0.0244897
77347:0.0758388
77357:-0.0315316
77358:0.0342725
77389:-0.0873016
77409:-0.0363877
77445:-0.0351206
77455:-0.0472537
77485:-0.0626293
77494:0.0308934
77566:-0.00190796
77606:0.0228146
77667:-0.00164383
77676:-0.033502
77692:-0.0833395
77705:-0.0455048
77714:-0.0514577
77730:-0.0347668
77747:-0.0338232
77750:0.00860395
77758:0.0203781
77764:0.0170644
77767:-0.0201236
77792:0.0207545
77794:0.023649
77799:-0.0505183
77819:-0.0297471
77848:-0.00131999
77852:0.0338641
77859:-0.0206498
77863:0.00608886
77878:0.0526566
77891:0.0463828
77903:-0.0754646
77923:0.0471875
77942:-0.0176067
77954:0.00881433
77988:0.0218448
77989:-0.034888
78034:-0.033187
78045:0.00254723
78072:-0.0520019
78078:-0.0745755
78114:0.0343235
78130:0.0147548
78134:-0.0350909
78145:-0.0362369
78146:-0.057423
78148:0.0215502
78149:-0.0335722
78171:0.016212
78192:0.0349158
78194:0.0352082
78199:0.028793
78224:0.0331685
78315:0.0524262
78323:-0.0237959
78332:0.0245951
78380:-0.0330295
78381:0.0683167
78415:-0.0512767
78417:0.0174985
78425:-0.0334171
78430:0.033103
78443:-0.0559139
78449:0.0338974
78454:-0.0448199
78457:-0.0355598
78468:0.0749978
78535:-0.0627739
78545:0.0670483
78551:-0.0347547
78561:0.0358244
78569:0.0642494
78582:0.031229
78586:-0.0311835
78608:0.0149016
78612:-0.0573316
78621:0.0348213
78646:0.0318067
78689:0.00716101
78693:0.0355259
78726:-0.0342101
78743:-0.059048
78761:-0.0298543
78766:0.0628092
78777:-0.0774413
78805:-0.03385
78809:-0.0747737
78839:0.00901871
78847:-0.0207711
78856:-0.0306557
78864:0.0203658
78865:-0.0333542
78932:0.0345543
78945:-0.0335257
78967:-0.0993646
78990:-0.027998
78991:-0.0337392
79045:0.0213291
79059:-0.0331786
79060:-0.0116081
79064:0.0137265
79075:-0.0330945
79094:-0.0549098
79115:0.00806641
79131:-0.0132964
79198:0.0318601
79242:-0.034702
79245:0.033123
79255:0.0285203
79266:0.0181395
79278:-0.0186583
79296:0.0347451
79314:0.0501021
79338:0.00334794
79372:-0.0397493
79375:0.0395788
79382:-0.0340385
79397:-0.0627047
79400:0.0352193
79417:0.00179195
79423:0.0315054
79439:0.0149549
79451:-0.0448431
79456:0.0325329
79509:-0.0479665
79537:0.0125347
79541:-0.0332612
79564:-0.0284269
79605:0.0105233
79621:-0.0560801
79649:0.0207564
79679:-0.0102745
79724:-0.0248636
79749:0.0175363
79762:-0.0512287
79767:0.0354926
79794:0.0329834
79809:0.0294572
79820:-0.0313142
79825:-0.0509383
79844:-0.102784
79854:-0.0355004
79891:-0.0357445
79901:-0.0117872
79932:0.00030803
79978:-0.0319249
79994:0.0490843
80032:0.000887467
80047:0.0351806
80086:0.0336007
80095:0.037113
80099:-0.00832933
80102:-0.021073
80124:-0.0127035
80139:-0.0332658
80146:0.0350809
80148:-0.0107741
80153:0.0274557
80169:-0.0330166
80191:0.0463397
80224:-0.0575266
80232:-0.0284987
80242:-0.0568886
80263:-0.000995365
80272:0.00439118
80289:-0.0173935
80292:-0.106154
80355:0.0131077
80380:-0.0333457
80430:-0.0423097
80433:-0.0791437
80435:-0.0368846
80437:-0.0157252
80457:0.0234412
80463:0.0343921
80474:-0.0334725
80502:-0.0597009
80578:0.0297021
80587:0.0242758
80642:-0.0149654
80644:-0.0146725
80663:-0.0723862
80713:0.0023653
80729:0.00110912
80758:-0.0471473
80767:0.0326159
80772:-0.0333189
80787:0.0138639
80822:0.0178326
80854:-0.0450461
80897:-0.0859299
80906:-0.0269145
80951:-0.0327541
80961:0.00290255
80967:-0.0613663
80994:-0.0623138
80998:-0.00217866
81011:-0.0140099
81031:-0.0383363
81082:-0.033274
81089:0.00451687
81094:0.00315441
81103:0.0530865
81104:-0.00741231
81105:0.00775075
81127:0.0101202
81134:-0.0292996
81153:-0.0700008
81164:-0.0425678
81168:0.035475
81170:0.0352371
81237:0.0109293
81250:-0.0166108
81267:0.0237964
81269:-0.0471376
81275:-0.0497296
81297:0.0355594
81312:0.00880904
81315:-0.0320013
81326:0.0417866
81337:0.03261
81344:-0.00174908
81345:-0.0338111
81347:-0.00735487
81356:0.0323609
81388:0.0350546
81401:-0.0346517
81419:-0.0520303
81460:-0.0642059
81475:-0.0338247
81480:0.0413445
81516:0.0169607
81553:-0.0333123
81561:0.0232736
81570:-0.0527996
81574:-0.0499683
81599:0.0349093
81630:-0.00797555
81689:-0.0333898
81690:0.0332524
81714:-0.0663674
81734:0.010938
81744:-0.0655495
81750:-0.0593314
81771:-0.034292
81799:-0.0474511
81810:0.0231502
81816:-0.0136235
81819:0.0123594
81828:-0.0335516
81836:-0.0325534
81843:-0.0183689
81847:-0.0217634
81858:-0.0253734
81884:-0.0128898
81909:-0.0424908
81936:-0.0325534
81943:-0.0479185
81958:0.0321527
82004:-0.0110098
82009:-0.000239708
82012:-0.0368168
82104:-0.0156911
82127:0.0500735
82133:-0.00300962
82158:-0.0249057
82165:0.00472055
82220:-0.0632888
82223:-0.0228374
82265:-0.0277014
82276:0.0358324
82310:-0.0638637
82338:-0.051446
82358:0.0249826
82377:0.0213507
82391:-0.0362866
82394:0.0143488
82409:-0.0351812
82426:-0.0230949
82427:-0.0341214
82429:0.0350424
82461:0.052329
82464:0.0792979
82546:-0.0496213
82581:0.00969047
82605:0.0356689
82620:0.0351342
82644:-0.0245222
82647:-0.0112694
82661:0.0777313
82711:-0.0283172
82720:-0.0631711
82723:-0.0227455
82736:-0.0341952
82744:-0.0172948
82789:0.0402975
82810:-0.0336406
82816:0.0529415
82830:-0.0616034
82835:-0.031795
82858:-0.0417394
82874:0.0808799
82884:-0.0346474
82887:0.0253367
82892:0.0336741
82920:-0.0124883
82953:-0.02971
82971:0.0510431
82988:-0.00506884
82995:0.0347059
83005:0.0245025
83023:-0.0117574
83027:-0.015418
83043:-0.0298264
83062:-0.00498258
83072:-0.0732443
83079:0.00321921
83086:0.0479465
83091:-0.0452002
83102:-0.0284103
83109:0.0478879
83112:0.0334284
83149:-0.263907
83155:0.0356184
83173:-0.0345524
83186:-0.0332054
83188:0.0524947
83213:-0.0314226
83223:-0.0494092
83230:0.0524123
83235:-0.0650254
83243:-0.0351962
83249:0.0520791
83282:0.00110397
83284:-0.0119762
83305:0.0674279
83329:-0.0184302
83397:-0.0485037
83458:0.0352207
83465:-0.030854
83476:0.0456244
83481:0.0905126
83484:0.0347292
83497:-0.013461
83498:0.0353032
83506:-0.0325756
83517:0.00386849
83530:-0.0242472
83552:-0.0624899
83576:-0.11913
83602:0.0344739
83627:0.0287473
83646:0.0241564
83675:-0.016434
83724:-0.0291508
83730:-0.031698
83731:-0.0336264
83742:0.012003
83746:-0.0352486
83755:-0.0303093
83768:-0.0296426
83801:0.0507376
83839:-0.06217
83865:-0.036583
83916:-0.0334908
83932:0.00940226
83935:-0.288103
83956:-0.0365787
83958:-0.00993892
83963:0.0167713
83988:-0.0458815
83991:0.0323882
83993:-0.00256579
84008:-0.032213
84026:0.0132645
84031:-0.0490805
84045:0.0345534
84063:-0.0872861
84080:-0.0776848
84081:0.00829186
84103:-0.0350307
84129:-0.0519779
84131:0.00838303
84142:-0.00814135
84161:-0.00462648
84167:-0.0203783
84175:0.0355498
84191:0.0356621
84246:0.0214055
84249:-0.0345494
84291:-0.0460461
84314:-0.034447
84319:-0.0307382
84355:0.0356955
84361:-0.0218815
84370:-0.0338085
84398:0.0195794
84409:0.0135529
84417:0.034764
84497:0.0242881
84502:-0.0646088
84515:-0.0729194
84516:-0.0559638
84526:0.028165
84533:-0.015255
84542:-0.0148517
84554:-0.0691618
84573:0.026642
84577:-0.0332273
84579:-0.0528373
84591:-0.036553
84599:0.0380759
84604:0.0208103
84615:-0.0340083
84620:-0.0250685
84651:0.0225603
84674:-0.0263374
84689:0.0207784
84695:0.0336616
84706:0.00962914
84712:0.0471823
84713:0.0212099
84735:-0.0345345
84760:-0.0124304
84769:-0.020127
84770:-0.0675324
84796:0.0846284
84813:-0.0347417
84814:-0.0588388
84835:-0.0514686
84837:0.0254204
84845:-0.0332347
84880:-0.0329795
84885:-0.015245
84910:0.00340111
84971:-0.0192943
85044:-0.0716715
85080:-0.0249071
85083:0.0326797
85103:-0.027181
85130:-0.0355338
85131:0.0213783
85172:-0.0324286
85174:-0.0337319
85179:0.0239974
85188:0.0382081
85223:0.0356302
85227:-0.0875085
85248:0.0136823
85251:0.0349624
85258:0.0352986
85275:-0.0325925
85291:-0.00179007
85323:-0.0487026
85373:0.0353796
85397:-0.0173062
85412:0.037329
85415:-0.0173062
85418:0.0338027
85428:-0.150396
85442:0.0282909
85444:-0.034155
85468:-0.0323682
85475:0.0193715
85476:0.0359404
85503:-0.00352677
85505:-0.0603204
85509:-0.0541347
85516:0.0731651
85534:-0.032906
85536:-0.0269337
85538:-0.0356483
85539:-0.0548477
85542:0.0185435
85545:-0.0208489
85571:-0.0503732
85584:0.00262063
85586:0.00890263
85595:-0.0449713
85618:-0.1048
85641:-0.0357706
85677:0.0146718
85680:-0.00143746
85684:-0.0541621
85699:-0.015032
85706:-0.0727914
85724:0.0171568
85749:-0.0627964
85763:-0.0214117
85772:0.006102
85779:-0.0551088
85792:-0.0164477
85810:-0.0353688
85862:-0.0104604
85874:-0.0584892
85895:-0.00871023
85905:0.00620871
85916:-0.036553
85932:-0.0285888
85934:-0.423789
85937:0.00306028
85939:0.0349088
85941:-0.00702593
85943:0.0405605
85947:-0.0556445
85960:-0.0337908
85987:0.00409458
86010:-0.0727034
86019:0.0494818
86020:0.0042611
86047:-0.00830774
86082:-0.0112531
86095:-0.0986576
86110:0.0138206
86123:-0.000885199
86171:-0.0363566
86183:-0.0492748
86207:0.000684915
86245:0.0052035
86259:0.0861377
86264:-0.0183302
86294:-0.0235076
86300:0.019596
86335:-0.049034
86342:-0.0565056
86345:0.094864
86346:0.0189442
86362:-0.0323612
86371:-0.0548103
86380:0.00602397
86407:0.00627777
86413:0.0253235
86421:-0.0624157
86433:-0.0663849
86472:-0.0747071
86482:-0.00980673
86499:-0.0349267
86503:-0.0337985
86515:-0.00229967
86584:-0.00922477
86628:-0.0574389
86650:0.0143812
86661:-0.0142164
86690:0.0347655
86699:-0.0328869
86704:0.035458
86707:-0.0328319
86739:0.0445782
86752:0.0353024
86754:-0.00711824
86768:-0.0577555
86781:-0.0355385
86799:-0.0294539
86803:0.0350705
86820:-0.0530358
86838:0.0379508
86840:0.0343517
86843:0.0334398
86851:-0.0489656
86875:-0.123359
86880:-0.0340939
86896:0.0332241
86901:0.0348887
86916:0.0140841
86921:-0.0454865
86941:-0.0113927
86945:0.0161448
86961:0.0265606
86962:-0.0517611
86990:-0.00539335
87007:-0.0772193
87043:-0.0323597
87046:-0.104829
87050:-0.0643595
87060:-0.0287911
87075:0.000510457
87082:-0.0345339
87087:-0.013758
87122:-0.0161686
87145:0.035114
87150:-0.00398227
87256:0.0212543
87261:-0.0312168
87272:-0.0493775
87276:-0.0294012
87306:-0.051049
87321:-0.0337757
87324:-0.00842884
87339:0.000955623
87341:0.0411041
87362:-0.00650795
87373:-0.0700258
87392:0.0962288
87402:0.0337891
87415:-0.00965579
87426:0.0358516
87432:-0.0330731
87439:0.0328254
87465:0.0282256
87500:-0.00111628
87508:-0.0230846
87522:0.0345118
87530:-0.126696
87532:-0.0317471
87542:0.0196483
87562:-0.033722
87569:0.0341846
87594:0.0401547
87611:0.0289484
87625:-0.0344961
87628:-0.0410202
87675:0.0349347
87694:-0.0500306
87732:0.0343944
87753:-0.0336042
87776:0.0343338
87810:-0.0173903
87820:-0.0324297
87860:-0.0202386
87880:0.0348399
87893:0.0334522
87967:-0.0329055
88000:0.0706315
88017:0.0521863
88019:-0.0305847
88037:0.0163801
88077:0.011968
88116:0.0122594
88126:0.00990137
88149:-0.0706027
88161:0.0165893
88182:-0.044725
88184:0.0356409
88199:0.0244605
88202:-0.0334243
88212:-0.0305702
88214:-0.0320108
88221:-0.0136503
88224:-0.0340146
88286:0.00713416
88342:0.0582193
88350:-0.079285
88352:-0.00190796
88358:-0.0337132
88361:-0.0341098
88367:-0.0491831
88369:0.00380392
88373:0.0292956
88375:-0.0243034
88388:-0.0327591
88389:-0.0209231
88392:-0.0492466
88405:-0.0342916
88456:-0.0336099
88466:-0.0331519
88476:-0.00763462
88477:-0.0685009
88491:0.00329158
88514:0.0160952
88542:-0.0769935
88571:-0.0476473
88590:-0.0290029
88612:-0.0306447
88633:-0.0154787
88681:-0.0350016
88683:-0.0545086
88693:-0.0341738
88694:-0.0103362
88737:0.000878772
88767:0.0336218
88770:0.0371515
88785:-0.0356657
88818:-0.0342499
88830:-0.0475721
88835:-0.0678438
88849:-0.0311337
88855:-0.0723894
88861:0.030753
88863:0.00875593
88864:0.0156766
88866:-0.0342146
88886:-0.0318871
88914:-0.073137
88945:-0.0414529
88977:-0.00193696
88982:-0.0103809
89013:0.0050957
89059:0.00277573
89088:-0.0381925
89107:-0.00250835
89109:0.0200251
89115:0.0348342
89128:-0.0287695
89134:-0.0368837
89149:-0.0123195
89160:0.0528194
89171:0.00576298
89175:0.00562189
89180:-0.116664
89191:-0.0322053
89229:0.0350384
89241:0.041563
89252:0.0522789
89291:-0.0306321
89309:0.0247399
89348:-0.0640178
89419:-0.0352109
89425:-0.0685953
89427:-0.0566259
89441:0.0601814
89466:0.0236522
89468:0.0246108
89472:-0.0609209
89478:-0.0340975
89484:0.0519753
89506:-0.0360302
89508:-0.0148833
89523:-0.0356082
89534:-0.0489889
89546:-0.0495881
89550:-0.0354133
89561:0.0112208
89566:-0.0311959
89616:-0.0056103
89634:0.0340329
89642:-0.0328724
89656:0.0481404
89668:0.0356058
89670:-0.0481126
89699:-0.0339941
89727:-0.0347578
89843:0.00122523
89855:-0.0194268
89876:-0.0102365
89881:0.0385122
89903:-0.0586574
89934:0.00500106
89965:-0.0306438
89997:-0.0253836
90002:-0.032871
90022:0.0307717
90077:-0.0337709
90111:0.0340098
90113:-0.0440488
90127:0.0826126
90142:0.0356579
90165:0.0196343
90171:0.0471246
90176:0.0320294
90217:0.0242374
90269:-0.0069953
90281:0.00569354
90313:-0.0100672
90339:-0.0245535
90351:-0.0223726
90355:-0.0479702
90356:-0.00549538
90363:0.0345578
90402:0.0207734
90405:-0.0311112
90422:-0.0365079
90441:-0.014671
90447:-0.0335797
90487:0.0789934
90518:-0.0500688
90520:0.0142386
90533:0.0348023
90549:-0.0338452
90554:0.0495706
90573:-0.0325125
90580:-0.0644612
90604:-0.0541301
90617:-0.0330636
90640:0.0350077
90644:0.0148773
90649:-0.0506471
90672:-0.0812185
90685:0.0409208
90698:0.0407023
90719:-0.0102223
90734:0.00605832
90742:0.00916061
90759:-0.0182437
90763:-0.0195151
90781:-0.0856877
90797:0.0472352
90807:-0.033195
90819:0.00621651
90857:-0.001111
90896:0.021624
90923:0.0345551
90926:0.0450673
90966:-0.00225039
90968:0.00128152
90975:-0.102484
90986:0.0552152
91033:-0.0505537
91055:0.0769496
91059:0.00907534
91090:-0.0317471
91098:0.0216607
91103:-0.0500347
91108:-0.0342334
91110:0.009773
91119:0.034955
91125:-0.0452611
91171:-0.0360312
91176:0.0352279
91198:0.00795575
91217:-0.0491519
91222:-0.0332564
91268:0.0181853
91275:-0.0596084
91276:-0.0326507
91280:-0.0592133
91290:0.0537126
91300:0.0343593
91304:-0.0680328
91326:-0.0484608
91347:0.0299039
91359:0.0535787
91373:0.00934853
91379:-0.0332114
91383:-0.102019
91392:0.0346048
91413:-0.0440905
91441:0.0351901
91465:0.0343697
91482:-0.0504048
91516:-0.0248532
91519:0.0510342
91521:-0.0956053
91533:-0.032726
91539:-0.032296
91563:0.00549946
91565:-0.00670995
91629:0.0236285
91660:0.00772419
91722:0.0350818
91729:0.0121936
91739:-0.109351
91740:0.00352544
91750:-0.0536248
91762:0.0335007
91798:-0.0538008
91803:-0.00448619
91815:-0.0179451
91816:0.0285282
91897:0.0567106
91900:0.00221594
91908:0.0506656
91916:0.0353504
91930:-0.0343971
91932:0.0306952
91947:0.00448923
91955:-0.0336872
91969:0.0523159
91991:0.0349686
92058:0.0501679
92059:0.0213953
92087:-0.0318492
92099:0.052022
92101:0.0342164
92106:-0.0647843
92128:0.08523
92167:-0.0637905
92175:-0.0552732
92218:-0.00204714
92234:-0.046565
92237:-0.0805663
92296:-0.0441504
92320:0.0137681
92321:0.0338577
92348:-0.033081
92353:0.0326701
92358:-0.0346377
92359:-0.00116013
92403:0.035684
92435:0.0243676
92436:-0.0286004
92444:-0.0335989
92467:0.0177056
92468:0.0194646
92483:-0.0334258
92484:0.0498244
92490:0.036088
92496:-0.0325925
92508:0.0331625
92509:-0.0337318
92526:-0.0471103
92534:-0.00321677
92591:-0.0316179
92598:-0.0101074
92627:-0.0337023
92665:0.00515862
92678:0.0200895
92684:-0.0238662
92706:0.0124719
92709:-0.0143773
92718:0.0345638
92775:-0.0513249
92776:-0.0723499
92794:-0.0336401
92797:0.0322031
92822:-0.0169896
92824:-0.0327037
92838:0.0349115
92853:-0.0193761
92856:-0.0495019
92907:-0.0161322
92936:-0.0338338
92941:0.0270259
92945:-0.0337471
92948:0.00771973
92949:-0.0323468
92962:-0.00877503
92979:-0.04593
92980:-0.0639542
92991:-0.0303245
93014:-0.000181041
93023:-0.0338362
93027:-0.0334077
93037:0.0118427
93057:0.00620893
93066:0.00837266
93071:-0.0271431
93113:-0.0335817
93123:-0.0345214
93131:-0.0313024
93191:-0.0354832
93196:0.0185537
93209:0.0522943
93231:0.0182253
93234:-0.0119071
93235:0.0684275
93243:0.00484205
93252:0.0313602
93257:0.0229057
93264:-0.0179241
93266:0.0227732
93267:-0.0552766
93268:0.0336743
93290:-0.0416438
93292:-0.0322769
93329:-0.0293756
93339:-0.0238528
93353:-0.00864316
93359:-0.0682519
93371:0.0354667
93384:-0.0503975
93414:-0.0979398
93421:-0.0491891
93427:0.0347655
93445:0.0351018
93451:-0.0347945
93453:-0.0118382
93462:-0.0294045
93471:0.0366721
93512:-0.0407457
93544:-0.0331314
93553:-0.0329446
93583:-0.0178105
93602:0.035739
93641:0.0517224
93645:-0.0148922
93661:0.0154188
93696:-0.0346982
93698:-0.0787935
93705:-0.0469112
93707:0.0636745
93709:-0.0230673
93732:-0.062106
93794:0.0497891
93826:-0.0307084
93835:0.0934386
93839:0.0318193
93888:0.0330372
93894:-0.0546172
93903:-0.0536154
93915:0.00624791
93918:-0.0472247
93969:0.0417836
93972:-0.0547497
93982:-0.0490081
93996:0.0260176
94082:-0.0331469
94101:-0.042735
94109:-0.00728808
94115:-0.0316204
94125:-0.0574389
94134:0.0279426
94137:0.0293469
94147:-0.0246748
94152:-0.048895
94171:0.0328618
94184:-0.0344337
94186:0.0330249
94217:0.0323839
94234:-0.0511747
94248:-0.0318468
94274:-0.0335546
94295:-0.0323631
94297:0.0450472
94301:0.0358976
94308:-0.0349142
94322:0.0259795
94334:0.0519289
94346:0.000722968
94354:0.035242
94364:-0.0135807
94370:-0.0318713
94381:0.0343035
94423:0.0360171
94428:-0.0402716
94488:0.0410991
94490:-0.0263374
94524:-0.0200212
94536:-0.0678306
94552:-0.007399
94559:-0.0349085
94583:-0.0069385
94611:-0.0352737
94649:0.0348295
94670:-0.0260851
94698:-0.0335036
94700:0.0301717
94739:0.00158701
94764:0.0327125
94773:-0.0318247
94799:-0.0527646
94834:0.0128132
94868:-0.0155944
94875:0.0358692
94896:-0.0221085
94900:0.0102259
94902:-0.0475212
94928:-0.00342333
94935:-0.0336952
94942:0.0353426
94970:-0.0511276
94973:-0.0340655
94990:0.0257277
94994:-0.0158277
95030:0.0348102
95034:-0.0227687
95068:-0.0398922
95072:-0.0611976
95076:0.0355871
95083:-0.032363
95093:-0.0351302
95101:0.0367101
95156:0.0445475
95172:-0.062796
95175:-0.028981
95189:-0.0141363
95197:0.0658447
95217:0.0116435
95256:-0.0296552
95280:0.0497213
95292:0.0657763
95386:0.0348771
95390:-0.034084
95426:-0.0287643
95452:-0.0342324
95466:0.0344013
95470:-0.0321494
95478:-0.012957
95484:-0.0455681
95497:-0.00242239
95514:0.060804
95520:-0.0349991
95523:-0.0018945
95524:0.0329359
95528:-0.0580838
95538:0.0332123
95539:-0.0300991
95545:-0.0350414
95575:-0.0330792
95580:0.0788625
95581:-0.0294383
95628:0.0330978
95630:0.0357055
95652:-0.0513959
95653:-0.0319811
95664:0.00451037
95665:-0.0278795
95695:-0.0478996
95713:0.00386849
95781:-0.0314714
95797:0.0530127
95814:0.0730842
95825:-0.0361803
95830:-0.0346044
95832:0.0363828
95849:-0.0350058
95852:-0.000737974
95889:-0.0108547
95904:0.0233025
95907:0.0357185
95908:-0.0436043
95924:0.0603445
95931:-0.0187206
95936:-0.00072782
95938:0.011748
95958:0.0561531
96017:-0.030173
96032:0.0586266
96090:0.0231588
96110:0.0125798
96111:-0.0504631
96116:0.0477881
96136:0.0579647
96149:-0.00914247
96153:0.0527732
96168:-0.0157042
96172:0.0513416
96188:-0.00259024
96205:0.0356847
96229:0.0340321
96235:0.0530934
96245:-0.00329318
96258:0.0699706
96260:-0.0990074
96263:-0.000723826
96323:0.0484105
96330:-0.0350097
96339:0.034955
96344:0.0407947
96351:-0.0229693
96374:0.0338991
96391:0.0358883
96400:-0.00171651
96406:0.0501679
96434:-0.00386822
96456:-0.00130954
96470:-0.0349829
96499:0.018709
96519:-0.051498
96533:-0.0397284
96534:-0.0340707
96586:-0.0346351
96610:0.037275
96621:-0.0207914
96622:-0.0285584
96696:-0.0618557
96718:0.0529884
96724:-0.037237
96730:-0.00272971
96739:0.0355787
96756:-0.0305698
96758:-0.0518768
96771:-0.033782
96802:0.00652931
96815:-0.0343066
96816:0.0191798
96832:-0.0222861
96852:0.0299393
96854:-0.0282418
96882:-0.0245022
96900:0.00436221
96913:0.0473961
96921:0.0350543
96934:0.051958
96948:-0.0455857
96994:-0.0599723
96999:-0.00564229
97004:-0.0636103
97007:0.00139501
97031:-0.0341262
97036:-0.054608
97041:-0.0562069
97062:-0.0729827
97151:0.0270995
97169:-0.0897746
97180:-0.0749502
97189:-0.0275747
97214:-0.033731
97312:-0.0323745
97331:0.0364967
97349:-0.0345675
97353:0.0527986
97359:-0.0366339
97398:-0.03473
97404:0.0354932
97433:0.0336151
97445:-0.0322088
97457:-0.0138849
97528:-0.0778071
97559:0.00438891
97563:-0.0630819
97589:-0.0321732
97598:-0.0421931
97672:-0.00299149
97687:0.00597208
97720:-0.0362023
97765:-0.0121189
97773:-0.0143912
97803:0.000347243
97831:0.0744251
97836:0.0183963
97858:-0.030273
97884:0.0330915
97888:-0.0342149
97890:0.0292289
97946:0.0101845
97993:0.0351937
98007:0.00838341
98009:-0.0591895
98047:-0.0325266
98070:-0.0139916
98148:-0.0361913
98156:-0.0221894
98173:-0.0280736
98188:-0.0310653
98189:-0.0831163
98194:-0.0623632
98195:-0.031923
98223:-0.0325127
98226:-0.0336786
98248:0.0359306
98252:-0.0196273
98255:0.00449038
98282:-0.033306
98293:0.0327852
98297:0.0353338
98341:0.0221266
98347:0.0217371
98348:-0.0350723
98371:0.0360805
98379:-0.0330344
98413:-0.00450665
98427:-0.0202669
98432:0.033123
98433:0.0353305
98454:0.0164217
98463:-0.0497102
98466:-0.0319811
98480:0.055522
98496:-0.0514638
98497:-0.00965866
98501:-0.0661521
98503:-0.0578228
98570:0.0352432
98600:-0.0572526
98607:-0.0479983
98620:-0.0325211
98653:-0.0341424
98655:-0.00557849
98661:-0.0814281
98713:0.0232301
98714:-0.0716348
98731:0.0345814
98752:-0.0389507
98754:0.0496256
98789:0.0743873
98806:0.0073536
98821:0.0308929
98830:-0.0530049
98845:-0.0371466
98852:0.0102752
98869:-0.0340472
98881:-0.0492568
98903:0.0356733
98921:0.0114829
98986:-0.0327247
99007:0.00162198
99019:-0.032111
99028:0.0163362
99033:0.0207171
99064:0.0672252
99116:-0.0388529
99121:0.0314747
99126:-0.000900094
99127:0.00551008
99146:-0.0250662
99164:-0.064342
99172:0.0328142
99187:-0.0324348
99194:-0.0118103
99246:-0.0290138
99295:-0.0339093
99306:-0.00499573
99334:0.0562118
99337:-0.0859718
99416:0.0267185
99477:-0.0312747
99479:0.0355416
99491:0.0350376
99513:-0.00951066
99516:0.0123518
99524:0.0343655
99598:-0.00483058
99601:-0.0472866
99619:0.0281995
99642:0.0354752
99752:0.0528837
99791:0.00484205
99816:-0.0327944
99823:0.0524778
99881:0.052364
99887:-0.00236363
99898:-0.0332658
99911:0.0349966
99970:-0.0322571
99977:-0.0518389
99988:0.0515476
100008:-0.0311034
100035:0.0358436
100079:0.0295202
100086:0.0388799
100161:-0.000724397
100202:-0.0590597
100209:-0.0617854
100257:-0.0335404
100283:-0.0343717
100294:0.0354271
100298:-0.0817176
100314:0.00952514
100317:0.0352316
100332:0.083409
100344:-0.0345949
100359:0.000177453
100364:-0.0135724
100389:-0.00912325
100392:0.00983502
100399:0.0330801
100432:-0.0372765
100456:0.0268253
100462:0.00187676
100468:-0.0262547
100476:-0.0700436
100482:0.0408601
100489:-0.0489373
100505:0.0352939
100553:0.0660154
100557:-0.0212184
100560:-0.0191647
100566:-0.000823022
100586:-0.0965931
100590:-0.0207782
100615:-0.046403
100617:-0.0340735
100631:0.0341479
100633:0.0146106
100634:-0.0502029
100663:-0.0779143
100666:0.0281552
100701:-0.0330092
100706:-0.0343761
100713:-0.0132639
100720:-0.0332469
100736:0.0164903
100781:-0.0329732
100813:-0.0130414
100860:-0.0329577
100866:0.00556704
100875:0.00493056
100885:-0.0535975
100924:0.0349892
100926:-0.049254
100952:-0.0185206
100960:-0.0484143
100968:0.00755964
100996:-0.0509395
100999:-0.00361701
101006:-0.0126302
101008:-0.0361363
101026:-0.0275916
101060:-0.0204272
101075:-0.0239384
101091:0.000263923
101095:-0.0584573
101108:0.0342922
101123:-0.0524539
101140:0.0387787
101148:-0.0971749
101157:-0.0330002
101158:0.0350172
101185:-0.0329156
101190:-0.0338553
101200:-0.0658544
101205:-0.04183
101212:0.0325877
101230:0.0109582
101255:0.314658
101261:-0.0338139
101263:-0.0342551
101264:0.0349802
101310:0.0324165
101320:0.0304588
101329:-0.0340115
101370:-0.0338951
101371:0.0278839
101379:0.0214407
101380:0.0354896
101390:0.0235871
101393:0.0352463
101433:0.0481091
101443:-0.0317026
101465:0.0626669
101470:-0.0317948
101508:0.0354503
101523:0.106721
101532:-0.0320866
101546:-0.034655
101558:0.0116806
101574:-0.0442356
101587:-0.000106791
101594:-0.0290783
101631:-0.0436149
101694:-0.0282125
101697:-0.0112098
101698:0.00090167
101708:0.086343
101717:-0.0322776
101719:-0.0283394
101733:0.0309806
101737:-0.0186112
101775:-0.0152526
101779:-0.0344555
101786:-0.00371305
101798:-0.042614
101799:-0.0338765
101808:-0.0338567
101829:0.0315773
101835:-0.0297212
101839:0.0481226
101844:0.0345244
101855:-0.0338808
101859:-0.0331999
101883:-0.0312874
101909:0.00392555
101958:0.0322799
101959:0.0604711
101975:-0.051945
101976:-0.0077589
102004:-0.0595082
102013:0.0360155
102017:0.0351411
102078:-0.0394675
102083:0.0351371
102100:0.0331696
102104:0.0104944
102108:-0.0294906
102117:-0.0340273
102143:0.011365
102145:0.035462
102152:-0.0300065
102175:-0.00073343
102192:-0.0281136
102201:-0.0538949
102216:-0.0350464
102225:0.0363488
102234:-0.0264407
102240:-0.00998646
102241:-0.0502225
102261:-0.0203897
102262:-0.0317312
102272:-0.00809004
102303:-0.0934542
102316:-0.022377
102327:0.00262147
102357:0.0336743
102370:-0.124426
102397:-0.0660405
102418:-0.0235787
102438:-0.0344295
102440:0.0366208
102447:0.0315499
102465:-0.0338512
102473:-0.0586585
102487:-0.025845
102520:-0.0254549
102568:0.00397194
102585:0.0635395
102589:-0.049483
102630:-0.0450067
102650:0.0689416
102664:-0.0489687
102671:0.0395442
102681:-0.0175017
102683:-0.030726
102689:-0.0446449
102733:-0.0317414
102735:-0.0338539
102779:-0.0345257
102796:-0.0314308
102820:0.0203215
102826:0.0104502
102833:-0.00382171
102853:-0.022023
102866:0.0167321
102880:-0.0314497
102903:0.0521054
102918:-0.0437076
102922:-0.032392
